{"learner":{"attributes":{"scikit_learn":"{\"_estimator_type\": \"classifier\"}"},"feature_names":["sex","age_years","systolic_bp","diastolic_bp","body_mass_index","diabetes_mellitus","smoking","physical_activity"],"feature_types":["int","int","float","float","float","int","int","int"],"gradient_booster":{"model":{"gbtree_model_param":{"num_parallel_tree":"1","num_trees":"100"},"iteration_indptr":[0,1,2,3,4,5,6,7,8,9,10,11,12,13,14,15,16,17,18,19,20,21,22,23,24,25,26,27,28,29,30,31,32,33,34,35,36,37,38,39,40,41,42,43,44,45,46,47,48,49,50,51,52,53,54,55,56,57,58,59,60,61,62,63,64,65,66,67,68,69,70,71,72,73,74,75,76,77,78,79,80,81,82,83,84,85,86,87,88,89,90,91,92,93,94,95,96,97,98,99,100],"tree_info":[0,0,0,0,0,0,0,0,0,0,0,0,0,0,0,0,0,0,0,0,0,0,0,0,0,0,0,0,0,0,0,0,0,0,0,0,0,0,0,0,0,0,0,0,0,0,0,0,0,0,0,0,0,0,0,0,0,0,0,0,0,0,0,0,0,0,0,0,0,0,0,0,0,0,0,0,0,0,0,0,0,0,0,0,0,0,0,0,0,0,0,0,0,0,0,0,0,0,0,0],"trees":[{"base_weights":[-3.1123623E-1,-5.644441E-1,2.3755004E0,-8.7616235E-1,2.030058E-2,1.0480618E0,3.1603427E0,-9.617668E-1,-2.4587354E-1,-4.8646826E-1,4.2166752E-1,6.6426927E-1,2.5004575E0,3.4575121E0,2.2051635E0,-1.0649203E0,-7.568034E-1,-6.360618E-2,-7.316366E-1,-5.4253584E-1,9.737586E-1,8.413196E-2,1.0975182E0,-2.715211E-1,9.1304636E-1,2.3267458E-1,8.285193E-1,2.3267458E-1,3.5291224E0,2.5714645E0,4.4901833E-2,-1.0819863E0,-3.8078794E-1,-8.9514446E-1,-4.070691E-1,-1.9611737E-1,1.3235477E0,-9.416029E-1,1.4338522E-1,-6.352639E-1,4.3297604E-1,-5.358154E-2,5.8776534E-1,-1.2839536E-1,7.296191E-1,8.772594E-1,2.8586762E0,1.0729699E0,-2.1864736E-1,2.3426795E0,1.1486248E0,2.7923996E0,8.993976E-2,-3.2689875E-1,-1.8644187E-1,1.4338522E-1,-2.1980514E-1,-2.876406E-1,-4.4057027E-2,-1.2199875E-2,-2.1569766E-1,2.1648432E-1,-1.00302085E-1,5.262009E-1,1.2156476E-1,-3.1978276E-1,2.9635396E-2,-2.9831973E-1,-1.5362437E-1,2.9490557E-1,-2.0434913E-1,-7.724469E-2,3.2105106E-1,2.9517305E-1,-6.2731184E-2,1.6293713E-1,4.3739325E-1,2.3267458E-1,9.7652996E-1,2.3418258E-1,6.262428E-1,9.3738925E-1,2.9212758E-1,2.7791816E-1,8.979286E-1],"categories":[],"categories_nodes":[],"categories_segments":[],"categories_sizes":[],"default_left":[0,0,0,0,0,0,0,0,0,0,0,0,0,0,0,0,0,0,0,0,0,0,0,0,0,0,0,0,0,0,0,0,0,0,0,0,0,0,0,0,0,0,0,0,0,0,0,0,0,0,0,0,0,0,0,0,0,0,0,0,0,0,0,0,0,0,0,0,0,0,0,0,0,0,0,0,0,0,0,0,0,0,0,0,0],"id":0,"left_children":[1,3,5,7,9,11,13,15,17,19,21,23,25,27,29,31,33,35,37,39,41,43,45,-1,47,-1,-1,-1,49,51,-1,53,55,57,59,61,63,65,-1,67,69,-1,-1,71,73,75,77,79,-1,81,-1,83,-1,-1,-1,-1,-1,-1,-1,-1,-1,-1,-1,-1,-1,-1,-1,-1,-1,-1,-1,-1,-1,-1,-1,-1,-1,-1,-1,-1,-1,-1,-1,-1,-1],"loss_changes":[5.5476624E2,1.3567505E2,6.988254E1,2.5957672E1,5.3041508E1,1.3724117E1,4.7672424E0,8.223755E0,5.212257E0,9.965815E0,3.3098095E1,9.881439E0,2.948761E-1,3.319397E0,9.493389E0,2.8763123E0,6.7206573E0,8.399746E0,4.5416384E0,1.0374813E1,5.596658E0,1.3553561E1,1.6258305E1,0E0,6.169388E0,0E0,0E0,0E0,1.8493347E0,4.720581E0,0E0,2.9226685E-1,2.8878884E0,4.817749E0,4.9241357E0,5.4795227E0,8.6673737E-1,1.9246645E0,0E0,4.0193634E0,6.9734735E0,0E0,0E0,1.1827373E1,6.0427914E0,7.8316727E0,1.550663E0,4.035898E0,0E0,6.2835884E0,0E0,9.616394E-1,0E0,0E0,0E0,0E0,0E0,0E0,0E0,0E0,0E0,0E0,0E0,0E0,0E0,0E0,0E0,0E0,0E0,0E0,0E0,0E0,0E0,0E0,0E0,0E0,0E0,0E0,0E0,0E0,0E0,0E0,0E0,0E0,0E0],"parents":[2147483647,0,0,1,1,2,2,3,3,4,4,5,5,6,6,7,7,8,8,9,9,10,10,11,11,12,12,13,13,14,14,15,15,16,16,17,17,18,18,19,19,20,20,21,21,22,22,24,24,28,28,29,29,31,31,32,32,33,33,34,34,35,35,36,36,37,37,39,39,40,40,43,43,44,44,45,45,46,46,47,47,49,49,51,51],"right_children":[2,4,6,8,10,12,14,16,18,20,22,24,26,28,30,32,34,36,38,40,42,44,46,-1,48,-1,-1,-1,50,52,-1,54,56,58,60,62,64,66,-1,68,70,-1,-1,72,74,76,78,80,-1,82,-1,84,-1,-1,-1,-1,-1,-1,-1,-1,-1,-1,-1,-1,-1,-1,-1,-1,-1,-1,-1,-1,-1,-1,-1,-1,-1,-1,-1,-1,-1,-1,-1,-1,-1],"split_conditions":[1.32E2,4.9E1,5.4E1,3.05E1,1.11E2,1.43E2,1E0,2.6E1,1E0,3.47E1,6.6E1,2.41E1,8.65E1,1.325E2,9.8E1,1E0,7.8E1,1E0,4.5E1,1E0,5.6E1,2.98E1,9E1,-2.715211E-1,9.7E1,2.3267458E-1,8.285193E-1,2.3267458E-1,7.85E1,3.34E1,4.4901833E-2,4.8E1,2.19E1,1.205E2,1E0,3.09E1,1.11E2,3.57E1,1.4338522E-1,2.3E1,1E0,-5.358154E-2,5.8776534E-1,8.9E1,6.1E1,2.78E1,2.14E1,1E0,-2.1864736E-1,7.05E1,1.1486248E0,5.9E1,8.993976E-2,-3.2689875E-1,-1.8644187E-1,1.4338522E-1,-2.1980514E-1,-2.876406E-1,-4.4057027E-2,-1.2199875E-2,-2.1569766E-1,2.1648432E-1,-1.00302085E-1,5.262009E-1,1.2156476E-1,-3.1978276E-1,2.9635396E-2,-2.9831973E-1,-1.5362437E-1,2.9490557E-1,-2.0434913E-1,-7.724469E-2,3.2105106E-1,2.9517305E-1,-6.2731184E-2,1.6293713E-1,4.3739325E-1,2.3267458E-1,9.7652996E-1,2.3418258E-1,6.262428E-1,9.3738925E-1,2.9212758E-1,2.7791816E-1,8.979286E-1],"split_indices":[2,1,1,4,2,2,7,4,0,4,1,4,3,2,3,5,3,6,1,5,1,4,3,0,3,0,0,0,3,4,0,1,4,2,7,4,2,4,0,4,7,0,0,3,1,4,4,5,0,3,0,1,0,0,0,0,0,0,0,0,0,0,0,0,0,0,0,0,0,0,0,0,0,0,0,0,0,0,0,0,0,0,0,0,0],"split_type":[0,0,0,0,0,0,0,0,0,0,0,0,0,0,0,0,0,0,0,0,0,0,0,0,0,0,0,0,0,0,0,0,0,0,0,0,0,0,0,0,0,0,0,0,0,0,0,0,0,0,0,0,0,0,0,0,0,0,0,0,0,0,0,0,0,0,0,0,0,0,0,0,0,0,0,0,0,0,0,0,0,0,0,0,0],"sum_hessian":[8.1249866E2,7.432427E2,6.925599E1,4.844771E2,2.5876553E2,2.6600594E1,4.265539E1,4.2608173E2,5.839539E1,1.1427238E2,1.4449316E2,2.2193396E1,4.407199E0,3.0535593E1,1.2119798E1,2.8064413E2,1.4543758E2,4.3284992E1,1.5110397E1,1.10652176E2,3.6201992E0,9.7115776E1,4.737739E1,2.6757994E0,1.9517595E1,1.1017997E0,3.3053994E0,1.1017997E0,2.9433794E1,1.0073598E1,2.0461996E0,2.7324634E2,7.3977985E0,1.0309698E2,4.234059E1,4.029439E1,2.9905994E0,1.3064198E1,2.0461996E0,1.0136558E2,9.286598E0,2.0461996E0,1.5739996E0,7.3663185E1,2.3452595E1,4.344239E1,3.9349992E0,1.8100996E1,1.4165998E0,7.7125983E0,2.1721195E1,8.971798E0,1.1017997E0,2.6742255E2,5.8237987E0,2.0461996E0,5.3515987E0,9.475478E1,8.342198E0,1.9989796E1,2.2350796E1,4.721999E0,3.557239E1,1.4165998E0,1.5739996E0,1.1647597E1,1.4165998E0,2.4082195E1,7.728339E1,6.2959986E0,2.9905994E0,6.7209785E1,6.4533987E0,1.8415796E1,5.036799E0,2.8804193E1,1.4638197E1,1.1017997E0,2.8331995E0,1.5425197E1,2.6757994E0,4.092399E0,3.6201992E0,1.4165998E0,7.5551987E0],"tree_param":{"num_deleted":"0","num_feature":"8","num_nodes":"85","size_leaf_vector":"1"}},{"base_weights":[-2.608798E-1,-5.195712E-1,8.9513195E-1,-7.7774274E-1,-7.615684E-2,3.346049E-1,1.3303977E0,-9.377175E-1,-4.2951703E-1,-5.910014E-1,8.501885E-2,2.3771167E-2,1.1513777E0,1.5558317E0,6.886318E-1,-1.0351019E0,-8.2367915E-1,-4.8652968E-1,7.4770194E-1,-7.08207E-1,2.1739703E-1,-9.1293275E-2,3.7000036E-1,3.1700638E-1,-3.416376E-1,-8.037568E-2,1.5352911E0,5.49337E-1,1.6816454E0,-4.7832218E-1,1.3164092E0,-1.0523531E0,-2.6957616E-1,-8.8729846E-1,-5.881966E-1,-5.55222E-1,3.7882635E-1,-2.9432768E-1,6.7591786E-1,-7.917127E-1,2.0335059E-1,5.4160523E-1,-4.0977275E-1,-2.9147646E-1,2.2699195E-1,1.526892E-1,1.2266172E0,-5.787003E-1,5.037943E-1,-6.710905E-1,1.7255704E-1,1.6479746E-1,-1.8100713E-1,4.314739E-2,1.6527045E0,-1.678113E-1,1.2587812E0,1.521382E0,6.358566E-1,-6.1518645E-1,6.690716E-2,1.513551E0,1.738464E-1,-3.2337445E-1,-2.318127E-1,9.28971E-2,-1.6683124E-1,-2.7327093E-1,-1.2911756E-1,-5.970988E-2,-2.6506776E-1,1.1067493E-1,-1.750578E-1,-1.553614E-1,2.1551472E-1,-2.60493E-1,2.4395151E-1,-4.3645117E-2,-2.4597214E-1,-2.0608945E-1,2.0061615E-1,-1.829217E-1,9.4639875E-2,-4.3392986E-2,-2.2046709E-1,-4.6985513E-3,2.4174753E-1,3.710914E-1,-7.2278166E-3,4.3212137E-1,-1.05520464E-1,-1.1010622E-2,-2.5892794E-1,1.8048368E-1,-1.2918486E-1,6.300612E-2,-2.5385216E-1,2.3610982E-1,-5.6844518E-2,1.5291128E-1,5.2369255E-1,-2.3941685E-1,2.5699034E-1,4.6404922E-1,6.306608E-2,2.3972951E-1,5.0878155E-1,-2.1587501E-1,-5.961394E-2,5.062426E-1,1.4977102E-2,-7.932731E-2,1.5624659E-1],"categories":[],"categories_nodes":[],"categories_segments":[],"categories_sizes":[],"default_left":[0,0,0,0,0,0,0,0,0,0,0,0,0,0,0,0,0,0,0,0,0,0,0,0,0,0,0,0,0,0,0,0,0,0,0,0,0,0,0,0,0,0,0,0,0,0,0,0,0,0,0,0,0,0,0,0,0,0,0,0,0,0,0,0,0,0,0,0,0,0,0,0,0,0,0,0,0,0,0,0,0,0,0,0,0,0,0,0,0,0,0,0,0,0,0,0,0,0,0,0,0,0,0,0,0,0,0,0,0,0,0,0,0],"id":1,"left_children":[1,3,5,7,9,11,13,15,17,19,21,23,25,27,29,31,33,35,37,39,41,43,45,47,49,51,53,55,57,59,61,63,65,67,69,71,73,75,-1,77,79,-1,81,83,85,87,89,91,93,95,97,-1,-1,-1,99,101,103,105,-1,107,-1,109,111,-1,-1,-1,-1,-1,-1,-1,-1,-1,-1,-1,-1,-1,-1,-1,-1,-1,-1,-1,-1,-1,-1,-1,-1,-1,-1,-1,-1,-1,-1,-1,-1,-1,-1,-1,-1,-1,-1,-1,-1,-1,-1,-1,-1,-1,-1,-1,-1,-1,-1],"loss_changes":[2.2802272E2,7.119389E1,3.3592514E1,2.1505478E1,1.9148159E1,1.5793696E1,1.0241394E1,2.1307068E0,8.796446E0,5.364929E0,8.884655E0,5.0543656E0,8.236755E0,6.303406E0,1.683532E1,1.5783691E0,1.405159E0,7.369955E0,1.0385456E1,3.8351994E0,8.437491E0,7.0510592E0,1.2382718E1,4.662902E0,3.6787112E0,1.9869739E0,1.9074383E0,4.193269E0,3.0148315E-1,9.50346E-1,3.0367222E0,1.5031433E-1,9.110517E-1,6.789627E-1,3.3100119E0,3.1446304E0,3.2500343E0,3.5966108E0,0E0,6.900902E-1,2.4673457E0,0E0,1.1141036E0,4.303918E0,6.0367174E0,1.0572986E1,5.0692844E0,7.3498976E-1,2.283977E0,2.18681E0,2.153248E0,0E0,0E0,0E0,3.863449E-1,3.7663536E0,8.987107E-1,3.7291718E0,0E0,1.7675447E-1,0E0,3.0632305E0,6.373484E-1,0E0,0E0,0E0,0E0,0E0,0E0,0E0,0E0,0E0,0E0,0E0,0E0,0E0,0E0,0E0,0E0,0E0,0E0,0E0,0E0,0E0,0E0,0E0,0E0,0E0,0E0,0E0,0E0,0E0,0E0,0E0,0E0,0E0,0E0,0E0,0E0,0E0,0E0,0E0,0E0,0E0,0E0,0E0,0E0,0E0,0E0,0E0,0E0,0E0,0E0],"parents":[2147483647,0,0,1,1,2,2,3,3,4,4,5,5,6,6,7,7,8,8,9,9,10,10,11,11,12,12,13,13,14,14,15,15,16,16,17,17,18,18,19,19,20,20,21,21,22,22,23,23,24,24,25,25,26,26,27,27,28,28,29,29,30,30,31,31,32,32,33,33,34,34,35,35,36,36,37,37,39,39,40,40,42,42,43,43,44,44,45,45,46,46,47,47,48,48,49,49,50,50,54,54,55,55,56,56,57,57,59,59,61,61,62,62],"right_children":[2,4,6,8,10,12,14,16,18,20,22,24,26,28,30,32,34,36,38,40,42,44,46,48,50,52,54,56,58,60,62,64,66,68,70,72,74,76,-1,78,80,-1,82,84,86,88,90,92,94,96,98,-1,-1,-1,100,102,104,106,-1,108,-1,110,112,-1,-1,-1,-1,-1,-1,-1,-1,-1,-1,-1,-1,-1,-1,-1,-1,-1,-1,-1,-1,-1,-1,-1,-1,-1,-1,-1,-1,-1,-1,-1,-1,-1,-1,-1,-1,-1,-1,-1,-1,-1,-1,-1,-1,-1,-1,-1,-1,-1,-1],"split_conditions":[1.3E2,4.9E1,5.7E1,2.74E1,1.035E2,1.385E2,1E0,3E1,8.75E1,3.1E1,2.8E1,1E0,4.1E1,2.21E1,1.33E2,1E0,8E1,3.52E1,1.225E2,1E0,6E1,6.5E1,1.245E2,2.52E1,1.32E2,1E0,2.34E1,8.35E1,1E0,1E0,7.4E1,1.21E2,9.75E1,4.8E1,4E1,2E1,3E1,3.27E1,6.7591786E-1,1.95E1,5.4E1,5.4160523E-1,3.47E1,1.205E2,1E0,2.84E1,3.57E1,2.24E1,3.67E1,7.25E1,2.57E1,1.6479746E-1,-1.8100713E-1,4.314739E-2,4.6E1,8.1E1,7.3E1,7.85E1,6.358566E-1,8.65E1,6.690716E-2,1E0,2.75E1,-3.2337445E-1,-2.318127E-1,9.28971E-2,-1.6683124E-1,-2.7327093E-1,-1.2911756E-1,-5.970988E-2,-2.6506776E-1,1.1067493E-1,-1.750578E-1,-1.553614E-1,2.1551472E-1,-2.60493E-1,2.4395151E-1,-4.3645117E-2,-2.4597214E-1,-2.0608945E-1,2.0061615E-1,-1.829217E-1,9.4639875E-2,-4.3392986E-2,-2.2046709E-1,-4.6985513E-3,2.4174753E-1,3.710914E-1,-7.2278166E-3,4.3212137E-1,-1.05520464E-1,-1.1010622E-2,-2.5892794E-1,1.8048368E-1,-1.2918486E-1,6.300612E-2,-2.5385216E-1,2.3610982E-1,-5.6844518E-2,1.5291128E-1,5.2369255E-1,-2.3941685E-1,2.5699034E-1,4.6404922E-1,6.306608E-2,2.3972951E-1,5.0878155E-1,-2.1587501E-1,-5.961394E-2,5.062426E-1,1.4977102E-2,-7.932731E-2,1.5624659E-1],"split_indices":[2,1,1,4,2,2,7,1,3,4,4,7,1,4,2,5,3,4,2,5,3,1,2,4,2,7,4,3,5,5,1,2,2,1,1,1,1,4,0,4,1,0,4,2,7,4,4,4,4,3,4,0,0,0,1,1,1,3,0,3,0,6,4,0,0,0,0,0,0,0,0,0,0,0,0,0,0,0,0,0,0,0,0,0,0,0,0,0,0,0,0,0,0,0,0,0,0,0,0,0,0,0,0,0,0,0,0,0,0,0,0,0,0],"split_type":[0,0,0,0,0,0,0,0,0,0,0,0,0,0,0,0,0,0,0,0,0,0,0,0,0,0,0,0,0,0,0,0,0,0,0,0,0,0,0,0,0,0,0,0,0,0,0,0,0,0,0,0,0,0,0,0,0,0,0,0,0,0,0,0,0,0,0,0,0,0,0,0,0,0,0,0,0,0,0,0,0,0,0,0,0,0,0,0,0,0,0,0,0,0,0,0,0,0,0,0,0,0,0,0,0,0,0,0,0,0,0,0,0],"sum_hessian":[7.599344E2,6.2142334E2,1.3851106E2,3.922737E2,2.2914963E2,6.131697E1,7.719409E1,2.676312E2,1.24642494E2,5.399768E1,1.7515195E2,4.515988E1,1.6157087E1,5.607298E1,2.1121117E1,1.3999983E2,1.2763138E2,1.1944452E2,5.197979E0,4.726841E1,6.7292695E0,1.08626595E2,6.652536E1,2.5127718E1,2.0032166E1,4.0271053E0,1.2129983E1,6.826676E0,4.9246304E1,7.4712105E0,1.3649906E1,1.3654803E2,3.4518027E0,9.83048E1,2.9326576E1,1.10992294E2,8.452225E0,3.547104E0,1.6508753E0,4.3422085E1,3.8463254E0,1.3733833E0,5.355886E0,6.6737045E1,4.188955E1,5.400367E1,1.2521692E1,3.9738238E0,2.1153893E1,1.2023429E1,8.008737E0,1.8042773E0,2.2228281E0,1.1170276E0,1.1012955E1,3.7745736E0,3.0521023E0,3.932702E1,9.919282E0,6.3540897E0,1.117121E0,1.1364361E1,2.2855453E0,1.2249628E2,1.4051753E1,1.115676E0,2.3361268E0,9.253085E1,5.773947E0,1.337621E1,1.5950366E1,2.9407659E0,1.0805153E2,2.1772945E0,6.27493E0,2.4785311E0,1.0685726E0,2.0727904E0,4.1349293E1,1.1568829E0,2.6894424E0,4.3231463E0,1.0327399E0,5.1131447E1,1.5605596E1,3.0201614E1,1.1687937E1,6.72978E0,4.7273888E1,1.1104933E1,1.41676E0,1.7560956E0,2.2177281E0,1.9471676E1,1.6822168E0,1.9600228E0,1.0063406E1,2.5339913E0,5.4747453E0,1.3157274E0,9.6972275E0,2.4737165E0,1.300857E0,2.0215654E0,1.0305368E0,8.740063E0,3.0586958E1,4.4986234E0,1.8554664E0,1.0020657E1,1.3437045E0,1.1150382E0,1.1705072E0],"tree_param":{"num_deleted":"0","num_feature":"8","num_nodes":"113","size_leaf_vector":"1"}},{"base_weights":[-2.131021E-1,-4.7516856E-1,4.594694E-1,-6.933009E-1,-1.2720373E-1,-2.0546168E-1,6.815241E-1,-8.647208E-1,-3.5169095E-1,-4.8633182E-1,-8.844266E-3,-3.0148908E-1,9.902355E-1,4.057644E-1,9.822549E-1,-9.726398E-1,-7.38111E-1,-4.6567702E-1,1.8420736E-1,-5.9933865E-1,1.8890032E-1,-4.5055145E-1,5.328531E-2,-4.8824203E-1,7.1970545E-2,4.0392876E-1,8.5904114E-2,1.4719509E-1,8.2937557E-1,8.273481E-1,1.5327827E0,-2.9549423E-1,-4.099964E-1,-8.344875E-1,-5.344993E-1,-5.3662384E-1,6.285301E-2,-5.2120686E-1,4.6945897E-1,-6.7945516E-1,1.2882335E-1,3.640646E-1,-3.31902E-1,-6.53186E-1,7.449227E-1,4.2142862E-1,-4.0923264E-2,-6.793482E-1,-2.9489937E-1,4.8697314E-1,-2.688286E-1,-2.1100362E-1,5.065288E-1,-4.3104383E-1,9.714184E-1,7.0403755E-1,1.5296248E0,1.4279571E-1,4.879602E-1,1.048694E-1,-2.378796E-1,-1.5753298E-1,-2.5935996E-1,-2.2577274E-1,-5.592376E-2,1.3431719E-1,-1.7357811E-1,-2.56106E-1,1.3168024E-1,8.689203E-3,-2.6652992E-1,4.1811016E-1,-9.899469E-3,-2.3532563E-1,-1.1421196E-1,-1.8645436E-1,1.4372452E-1,-1.8605334E-1,3.3248305E-2,1.3845249E-1,-2.3983668E-1,-5.5636868E-2,4.018881E-1,2.0782824E-1,-1.0435896E-1,-1.0680169E-1,4.502778E-2,-8.39311E-3,-2.4555169E-1,-3.3911995E-3,-1.7545438E-1,-3.204181E-2,3.701899E-1,4.82325E-2,-2.4606009E-1,-1.4169599E-1,4.2972896E-2,1.9604349E-1,-1.8996702E-1,1.3697909E-2,-2.2408693E-1,4.769372E-1,2.4068354E-1,2.2925454E-1,-9.918285E-2,5.1304555E-1,5.0570037E-2],"categories":[],"categories_nodes":[],"categories_segments":[],"categories_sizes":[],"default_left":[0,0,0,0,0,0,0,0,0,0,0,0,0,0,0,0,0,0,0,0,0,0,0,0,0,0,0,0,0,0,0,0,0,0,0,0,0,0,0,0,0,0,0,0,0,0,0,0,0,0,0,0,0,0,0,0,0,0,0,0,0,0,0,0,0,0,0,0,0,0,0,0,0,0,0,0,0,0,0,0,0,0,0,0,0,0,0,0,0,0,0,0,0,0,0,0,0,0,0,0,0,0,0,0,0,0,0],"id":2,"left_children":[1,3,5,7,9,11,13,15,17,19,21,23,25,27,29,31,33,35,37,39,41,43,45,47,49,-1,-1,51,53,55,57,-1,59,61,63,65,67,69,71,73,75,-1,77,79,81,83,85,87,89,91,93,95,97,99,101,103,105,-1,-1,-1,-1,-1,-1,-1,-1,-1,-1,-1,-1,-1,-1,-1,-1,-1,-1,-1,-1,-1,-1,-1,-1,-1,-1,-1,-1,-1,-1,-1,-1,-1,-1,-1,-1,-1,-1,-1,-1,-1,-1,-1,-1,-1,-1,-1,-1,-1,-1],"loss_changes":[1.23907936E2,3.8278687E1,2.9267887E1,1.787709E1,8.326843E0,6.0574036E0,1.1884895E1,2.0975037E0,6.5257454E0,3.819045E0,4.097461E0,3.3266468E0,6.078079E-1,8.527888E0,4.714096E0,3.4668732E-1,1.4959488E0,3.3042088E0,4.1096783E0,2.5285273E0,4.524075E0,4.9461565E0,4.5614324E0,9.668641E-1,2.4792655E0,0E0,0E0,6.575267E0,5.739073E0,3.8519783E0,6.357422E-1,0E0,1.4502292E0,1.5382767E-1,2.4842968E0,3.440199E0,4.241235E0,1.2388743E0,6.6418386E0,8.883972E-1,1.6086739E0,0E0,8.224619E-1,3.0223765E0,1.9832376E0,5.8320746E0,6.387236E0,1.3475914E0,1.4299129E0,3.6103873E0,2.4440672E0,2.46272E0,4.6648483E0,5.91679E-1,1.5500469E0,3.3807583E0,1.5909939E0,0E0,0E0,0E0,0E0,0E0,0E0,0E0,0E0,0E0,0E0,0E0,0E0,0E0,0E0,0E0,0E0,0E0,0E0,0E0,0E0,0E0,0E0,0E0,0E0,0E0,0E0,0E0,0E0,0E0,0E0,0E0,0E0,0E0,0E0,0E0,0E0,0E0,0E0,0E0,0E0,0E0,0E0,0E0,0E0,0E0,0E0,0E0,0E0,0E0,0E0],"parents":[2147483647,0,0,1,1,2,2,3,3,4,4,5,5,6,6,7,7,8,8,9,9,10,10,11,11,12,12,13,13,14,14,15,15,16,16,17,17,18,18,19,19,20,20,21,21,22,22,23,23,24,24,27,27,28,28,29,29,30,30,32,32,33,33,34,34,35,35,36,36,37,37,38,38,39,39,40,40,42,42,43,43,44,44,45,45,46,46,47,47,48,48,49,49,50,50,51,51,52,52,53,53,54,54,55,55,56,56],"right_children":[2,4,6,8,10,12,14,16,18,20,22,24,26,28,30,32,34,36,38,40,42,44,46,48,50,-1,-1,52,54,56,58,-1,60,62,64,66,68,70,72,74,76,-1,78,80,82,84,86,88,90,92,94,96,98,100,102,104,106,-1,-1,-1,-1,-1,-1,-1,-1,-1,-1,-1,-1,-1,-1,-1,-1,-1,-1,-1,-1,-1,-1,-1,-1,-1,-1,-1,-1,-1,-1,-1,-1,-1,-1,-1,-1,-1,-1,-1,-1,-1,-1,-1,-1,-1,-1,-1,-1,-1,-1],"split_conditions":[1.25E2,4.9E1,4.6E1,2.74E1,1.035E2,1E0,1.345E2,3E1,3.33E1,3.1E1,2.24E1,1.315E2,7.85E1,6.6E1,1E0,1E0,1E0,1E0,6.6E1,1E0,6E1,8E1,6.65E1,2.65E1,2.71E1,4.0392876E-1,8.5904114E-2,2.79E1,2.11E1,1.61E2,1.36E2,-2.9549423E-1,9.6E1,3.2E1,2.54E1,2E1,3E1,9.6E1,1.1E2,6.5E1,5.4E1,3.640646E-1,1E0,5.1E1,2.08E1,2.89E1,7.25E1,2.3E1,1E0,8.9E1,8.9E1,5.6E1,6.4E1,1E0,1.255E2,1.6E2,1E0,1.4279571E-1,4.879602E-1,1.048694E-1,-2.378796E-1,-1.5753298E-1,-2.5935996E-1,-2.2577274E-1,-5.592376E-2,1.3431719E-1,-1.7357811E-1,-2.56106E-1,1.3168024E-1,8.689203E-3,-2.6652992E-1,4.1811016E-1,-9.899469E-3,-2.3532563E-1,-1.1421196E-1,-1.8645436E-1,1.4372452E-1,-1.8605334E-1,3.3248305E-2,1.3845249E-1,-2.3983668E-1,-5.5636868E-2,4.018881E-1,2.0782824E-1,-1.0435896E-1,-1.0680169E-1,4.502778E-2,-8.39311E-3,-2.4555169E-1,-3.3911995E-3,-1.7545438E-1,-3.204181E-2,3.701899E-1,4.82325E-2,-2.4606009E-1,-1.4169599E-1,4.2972896E-2,1.9604349E-1,-1.8996702E-1,1.3697909E-2,-2.2408693E-1,4.769372E-1,2.4068354E-1,2.2925454E-1,-9.918285E-2,5.1304555E-1,5.0570037E-2],"split_indices":[2,1,1,4,2,5,2,1,4,4,4,2,3,1,5,5,0,6,3,5,3,1,3,4,4,0,0,4,4,2,2,0,2,1,4,1,1,2,2,1,1,0,7,1,4,4,3,1,7,3,3,1,1,0,2,2,6,0,0,0,0,0,0,0,0,0,0,0,0,0,0,0,0,0,0,0,0,0,0,0,0,0,0,0,0,0,0,0,0,0,0,0,0,0,0,0,0,0,0,0,0,0,0,0,0,0,0],"split_type":[0,0,0,0,0,0,0,0,0,0,0,0,0,0,0,0,0,0,0,0,0,0,0,0,0,0,0,0,0,0,0,0,0,0,0,0,0,0,0,0,0,0,0,0,0,0,0,0,0,0,0,0,0,0,0,0,0,0,0,0,0,0,0,0,0,0,0,0,0,0,0,0,0,0,0,0,0,0,0,0,0,0,0,0,0,0,0,0,0,0,0,0,0,0,0,0,0,0,0,0,0,0,0,0,0,0,0],"sum_hessian":[7.007515E2,5.0447653E2,1.96275E2,3.0947824E2,1.9499829E2,4.9155663E1,1.4711932E2,2.0505188E2,1.0442635E2,4.7565475E1,1.4743282E2,4.619367E1,2.9619958E0,7.7971466E1,6.914786E1,1.0708939E2,9.796249E1,8.6218605E1,1.8207747E1,4.0842476E1,6.723E0,1.7409441E1,1.3002338E2,3.0589617E1,1.5604052E1,1.3606247E0,1.601371E0,4.9254402E1,2.8717066E1,5.5916866E1,1.3230993E1,1.040564E2,3.0329928E0,6.438731E1,3.3575176E1,7.600132E1,1.0217287E1,5.004547E0,1.3203199E1,3.6854435E1,3.9880419E0,1.8173388E0,4.905661E0,1.527408E1,2.1353607E0,2.5785765E1,1.0423761E2,1.4119623E1,1.6469992E1,6.842633E0,8.761419E0,2.4872879E1,2.4381523E1,2.7024274E0,2.6014639E1,4.926848E1,6.648391E0,1.5733011E0,1.1657692E1,1.0457902E0,1.9872025E0,7.335126E0,5.705218E1,1.9928148E1,1.3647026E1,2.7126186E0,7.32887E1,2.603179E0,7.6141086E0,2.3719974E0,2.6325502E0,4.0252366E0,9.177963E0,2.6069414E1,1.0785021E1,1.0227082E0,2.9653337E0,2.7283432E0,2.1773179E0,1.5217679E0,1.3752313E1,1.1010258E0,1.0343348E0,1.9135931E1,6.6498327E0,3.901624E1,6.5221375E1,2.6969106E0,1.1422712E1,8.851463E0,7.618529E0,4.289757E0,2.552876E0,5.3226566E0,3.4387622E0,1.4122129E1,1.0750749E1,2.197492E1,2.4066021E0,1.4180683E0,1.2843591E0,3.7833867E0,2.2231253E1,4.6808872E1,2.459603E0,5.643381E0,1.0050093E0],"tree_param":{"num_deleted":"0","num_feature":"8","num_nodes":"107","size_leaf_vector":"1"}},{"base_weights":[-1.7304975E-1,-3.886957E-1,3.279338E-1,-6.732422E-1,-1.718191E-1,4.092457E-2,5.9284925E-1,-7.3479074E-1,-2.0324105E-1,-2.5965983E-1,2.6303357E-1,-6.866347E-2,8.341103E-1,5.3389627E-1,3.8390723E-1,-8.419601E-1,-5.7420415E-1,3.4570086E-1,-7.086325E-1,-6.3508546E-1,-1.3141873E-1,-3.0847909E-2,7.464261E-1,-6.2751544E-1,4.430885E-2,3.322545E-1,1.4310654E0,-2.484265E-1,5.817588E-1,-9.00254E-1,-4.9535903E-1,-7.0151794E-1,-6.9810934E-2,4.7283614E-1,-3.909034E-2,-8.871677E-1,6.404714E-2,-7.954649E-1,-3.059583E-1,-2.5188795E-1,1.3887186E-1,-3.240456E-1,4.014107E-1,3.9208394E-2,1.0129251E0,4.0231157E-2,-7.708125E-1,-4.3920497E-3,3.5316962E-1,8.1542206E-1,-2.6786256E-1,5.3446823E-1,7.9000644E-2,1.402415E-1,-6.168164E-1,4.3884364E-1,8.753402E-1,-2.7434695E-1,-1.0527202E-1,1.487972E-1,-2.1231896E-1,-9.01075E-2,-2.3454301E-1,-9.027942E-2,2.4149148E-1,-1.8518685E-1,2.7015984E-1,-4.0923644E-2,-2.8738618E-1,-2.7869138E-1,-1.270907E-1,-1.990908E-1,-3.3805966E-2,-9.961779E-2,1.356466E-1,7.664483E-2,-2.2959527E-1,1.3655272E-1,-2.0170563E-1,1.983868E-1,-1.6191213E-1,2.3743144E-1,-1.3474147E-1,3.4236616E-1,-5.2665837E-2,1.072194E-1,-7.623287E-2,9.304373E-2,-2.70468E-1,-1.5124208E-1,1.9353399E-2,3.8889434E-2,3.185041E-1,6.8399586E-2,-1.87651E-1,-2.5164405E-1,-3.720576E-2,1.8554032E-1,-1.2801841E-3,9.6828915E-2,3.238788E-1],"categories":[],"categories_nodes":[],"categories_segments":[],"categories_sizes":[],"default_left":[0,0,0,0,0,0,0,0,0,0,0,0,0,0,0,0,0,0,0,0,0,0,0,0,0,0,0,0,0,0,0,0,0,0,0,0,0,0,0,0,0,0,0,0,0,0,0,0,0,0,0,0,0,0,0,0,0,0,0,0,0,0,0,0,0,0,0,0,0,0,0,0,0,0,0,0,0,0,0,0,0,0,0,0,0,0,0,0,0,0,0,0,0,0,0,0,0,0,0,0,0],"id":3,"left_children":[1,3,5,7,9,11,13,15,17,19,21,23,25,27,-1,29,31,33,35,37,39,41,43,45,47,49,51,53,55,57,59,61,63,-1,65,67,-1,69,71,73,75,77,79,81,83,85,87,89,-1,91,93,-1,-1,-1,95,97,99,-1,-1,-1,-1,-1,-1,-1,-1,-1,-1,-1,-1,-1,-1,-1,-1,-1,-1,-1,-1,-1,-1,-1,-1,-1,-1,-1,-1,-1,-1,-1,-1,-1,-1,-1,-1,-1,-1,-1,-1,-1,-1,-1,-1],"loss_changes":[7.039934E1,2.797409E1,1.4899157E1,5.535927E0,9.986228E0,8.339638E0,3.4465675E0,2.5006409E0,6.9418697E0,1.0340668E1,6.292345E0,5.371577E0,3.0124521E0,3.725874E0,0E0,1.6118622E0,4.6096077E0,5.858147E0,2.3124762E0,2.652792E0,5.33108E0,3.7301724E0,3.1125803E0,1.3992186E0,3.9414077E0,2.430055E0,1.5834389E0,1.9274232E0,3.410078E0,3.513565E-1,3.906271E0,1.6273613E0,3.4227834E0,0E0,6.1529655E0,4.5379448E-1,0E0,1.4067402E0,1.2802432E0,6.52042E0,5.550548E0,5.0499372E0,3.2739987E0,2.4191945E0,2.0464582E0,4.153917E-1,1.9504704E0,2.422186E0,0E0,6.177325E-1,8.7941504E-1,0E0,0E0,0E0,3.9205062E-1,5.0033073E0,2.8798656E0,0E0,0E0,0E0,0E0,0E0,0E0,0E0,0E0,0E0,0E0,0E0,0E0,0E0,0E0,0E0,0E0,0E0,0E0,0E0,0E0,0E0,0E0,0E0,0E0,0E0,0E0,0E0,0E0,0E0,0E0,0E0,0E0,0E0,0E0,0E0,0E0,0E0,0E0,0E0,0E0,0E0,0E0,0E0,0E0],"parents":[2147483647,0,0,1,1,2,2,3,3,4,4,5,5,6,6,7,7,8,8,9,9,10,10,11,11,12,12,13,13,15,15,16,16,17,17,18,18,19,19,20,20,21,21,22,22,23,23,24,24,25,25,26,26,27,27,28,28,29,29,30,30,31,31,32,32,34,34,35,35,37,37,38,38,39,39,40,40,41,41,42,42,43,43,44,44,45,45,46,46,47,47,49,49,50,50,54,54,55,55,56,56],"right_children":[2,4,6,8,10,12,14,16,18,20,22,24,26,28,-1,30,32,34,36,38,40,42,44,46,48,50,52,54,56,58,60,62,64,-1,66,68,-1,70,72,74,76,78,80,82,84,86,88,90,-1,92,94,-1,-1,-1,96,98,100,-1,-1,-1,-1,-1,-1,-1,-1,-1,-1,-1,-1,-1,-1,-1,-1,-1,-1,-1,-1,-1,-1,-1,-1,-1,-1,-1,-1,-1,-1,-1,-1,-1,-1,-1,-1,-1,-1,-1,-1,-1,-1,-1,-1],"split_conditions":[1.25E2,4.1E1,5.7E1,3.06E1,3.1E1,1E0,1.61E2,3E1,1.1E2,1.025E2,7.6E1,2.42E1,8.35E1,2.11E1,3.8390723E-1,2.74E1,8E1,3.09E1,3.76E1,5.8E1,6.4E1,1E0,1.145E2,7.3E1,1.52E2,7.95E1,1E0,7.05E1,8.75E1,1E0,2E1,2.29E1,1E0,4.7283614E-1,1.03E2,6.6E1,6.404714E-2,6.6E1,6E1,8.25E1,2.89E1,3.23E1,7.05E1,1.1E2,1E0,3.3E1,1.97E1,3E1,3.5316962E-1,1.305E2,5E1,5.3446823E-1,7.9000644E-2,1.402415E-1,1.305E2,8.05E1,6.4E1,-2.7434695E-1,-1.0527202E-1,1.487972E-1,-2.1231896E-1,-9.01075E-2,-2.3454301E-1,-9.027942E-2,2.4149148E-1,-1.8518685E-1,2.7015984E-1,-4.0923644E-2,-2.8738618E-1,-2.7869138E-1,-1.270907E-1,-1.990908E-1,-3.3805966E-2,-9.961779E-2,1.356466E-1,7.664483E-2,-2.2959527E-1,1.3655272E-1,-2.0170563E-1,1.983868E-1,-1.6191213E-1,2.3743144E-1,-1.3474147E-1,3.4236616E-1,-5.2665837E-2,1.072194E-1,-7.623287E-2,9.304373E-2,-2.70468E-1,-1.5124208E-1,1.9353399E-2,3.8889434E-2,3.185041E-1,6.8399586E-2,-1.87651E-1,-2.5164405E-1,-3.720576E-2,1.8554032E-1,-1.2801841E-3,9.6828915E-2,3.238788E-1],"split_indices":[2,1,1,4,4,5,2,1,2,2,3,4,3,4,0,4,3,4,4,1,1,7,2,3,2,3,7,3,3,5,1,4,6,0,2,3,0,3,3,3,4,4,3,2,6,1,4,1,0,2,1,0,0,0,2,3,1,0,0,0,0,0,0,0,0,0,0,0,0,0,0,0,0,0,0,0,0,0,0,0,0,0,0,0,0,0,0,0,0,0,0,0,0,0,0,0,0,0,0,0,0],"split_type":[0,0,0,0,0,0,0,0,0,0,0,0,0,0,0,0,0,0,0,0,0,0,0,0,0,0,0,0,0,0,0,0,0,0,0,0,0,0,0,0,0,0,0,0,0,0,0,0,0,0,0,0,0,0,0,0,0,0,0,0,0,0,0,0,0,0,0,0,0,0,0,0,0,0,0,0,0,0,0,0,0,0,0,0,0,0,0,0,0,0,0,0,0,0,0,0,0,0,0,0,0],"sum_hessian":[6.494542E2,4.5417914E2,1.9527507E2,1.955324E2,2.5864676E2,9.4283195E1,1.00991875E2,1.723934E2,2.3138992E1,2.1551529E2,4.3131454E1,8.364068E1,1.0642521E1,9.464558E1,6.3463E0,1.0084817E2,7.154523E1,1.1243067E1,1.18959255E1,5.386712E1,1.6164818E2,2.7405994E1,1.5725459E1,1.3298921E1,7.034176E1,6.627452E0,4.0150685E0,5.214998E0,8.943058E1,8.496136E1,1.5886811E1,5.6814E1,1.4731231E1,1.9408636E0,9.302203E0,9.998075E0,1.8978512E0,3.52657E1,1.8601418E1,1.1185998E2,4.9788197E1,1.6478855E1,1.0927138E1,4.617902E0,1.1107558E1,2.4767618E0,1.0822159E1,6.8397675E1,1.9440831E0,3.4727178E0,3.154734E0,2.683848E0,1.3312209E0,1.6804304E0,3.534567E0,6.182771E1,2.760287E1,8.21674E1,2.793955E0,2.5672696E0,1.3319541E1,1.0265539E1,4.654846E1,1.2171478E1,2.5597522E0,5.970988E0,3.3312154E0,1.1136671E0,8.884407E0,2.4846216E1,1.0419485E1,5.6715994E0,1.2929818E1,1.0089872E2,1.096126E1,4.473614E1,5.052055E0,4.995729E0,1.1483127E1,8.795657E0,2.1314812E0,1.5734985E0,3.044403E0,1.006122E1,1.0463371E0,1.0890374E0,1.3877243E0,1.0196955E0,9.802463E0,7.5223455E0,6.0875328E1,1.3208269E0,2.151891E0,1.4738145E0,1.6809194E0,1.9527417E0,1.5818255E0,4.37123E1,1.811541E1,8.145868E0,1.9457003E1],"tree_param":{"num_deleted":"0","num_feature":"8","num_nodes":"101","size_leaf_vector":"1"}},{"base_weights":[-1.3846019E-1,-2.8196815E-1,3.3471283E-1,-7.213069E-1,-1.6872749E-1,5.265065E-1,-6.4465635E-2,-8.0178404E-1,-4.4919986E-1,-3.7889212E-1,-3.286906E-2,4.083704E-1,1.0093783E0,-6.429156E-1,2.0100693E-1,-8.552889E-1,-3.673974E-1,6.4480454E-2,-9.7267705E-1,-4.4425803E-1,2.9526293E-1,-8.4679835E-2,7.849197E-1,3.268453E-1,1.26387E0,-5.0145023E-2,1.1173373E0,1.0350978E-1,-2.5798625E-1,9.2493296E-1,6.07731E-2,-8.755406E-1,-2.3193938E-1,7.396996E-2,-2.5728756E-1,6.134903E-1,-2.7174225E-1,-3.138041E-1,-3.885787E-2,-4.71836E-1,3.5224605E-1,7.180986E-1,-7.5823015E-1,-1.6268772E-1,3.1294185E-1,1.0009242E0,-1.4827226E-1,2.2298634E-1,8.4686863E-1,4.1700646E-1,1.0331349E-1,3.4692565E-1,1.025861E-1,3.6516404E-1,-9.705763E-3,-2.2833064E-1,3.8164607E-1,-2.802263E-1,-1.5877299E-1,1.0768974E-1,-1.9660552E-1,-2.1700849E-1,1.8592982E-1,2.5526303E-1,-1.7646351E-1,-1.9919778E-1,-1.0118462E-1,-2.3233037E-1,3.4780917E-1,-7.009147E-2,-2.671661E-1,-8.109728E-2,4.400915E-2,1.1544506E-1,-2.8837883E-1,2.1935567E-1,4.5728225E-1,3.1905152E-2,2.0651557E-1,3.9130592E-1,6.849958E-2,8.26865E-2,-1.8890192E-1,2.9679537E-1,-2.9792644E-2],"categories":[],"categories_nodes":[],"categories_segments":[],"categories_sizes":[],"default_left":[0,0,0,0,0,0,0,0,0,0,0,0,0,0,0,0,0,0,0,0,0,0,0,0,0,0,0,0,0,0,0,0,0,0,0,0,0,0,0,0,0,0,0,0,0,0,0,0,0,0,0,0,0,0,0,0,0,0,0,0,0,0,0,0,0,0,0,0,0,0,0,0,0,0,0,0,0,0,0,0,0,0,0,0,0],"id":4,"left_children":[1,3,5,7,9,11,13,15,17,19,21,23,25,27,29,31,33,35,37,39,41,43,45,47,49,-1,51,-1,-1,53,55,57,59,61,-1,63,-1,-1,-1,65,-1,67,69,71,73,75,-1,77,79,-1,-1,-1,-1,-1,-1,81,83,-1,-1,-1,-1,-1,-1,-1,-1,-1,-1,-1,-1,-1,-1,-1,-1,-1,-1,-1,-1,-1,-1,-1,-1,-1,-1,-1,-1],"loss_changes":[4.142002E1,2.313721E1,1.091172E1,1.7311592E0,1.0637827E1,5.068636E0,7.3469925E0,1.3691559E0,6.5357084E0,6.5806713E0,9.711966E0,5.087921E0,2.4992676E0,3.5181193E0,3.291727E0,6.0149E-1,2.1613696E0,7.527425E0,6.0556316E-1,6.5267296E0,6.57469E0,6.719302E0,4.2691965E0,3.7732697E0,2.7684498E-1,0E0,1.138401E-1,0E0,0E0,1.517077E0,2.7492466E0,7.498398E-1,1.0773644E0,3.0693514E0,0E0,3.054921E0,0E0,0E0,0E0,3.1964989E0,0E0,7.598214E0,9.483576E-2,6.046682E0,3.630468E0,5.8197975E-1,0E0,3.3197026E0,3.0567884E0,0E0,0E0,0E0,0E0,0E0,0E0,3.35335E0,4.182788E0,0E0,0E0,0E0,0E0,0E0,0E0,0E0,0E0,0E0,0E0,0E0,0E0,0E0,0E0,0E0,0E0,0E0,0E0,0E0,0E0,0E0,0E0,0E0,0E0,0E0,0E0,0E0,0E0],"parents":[2147483647,0,0,1,1,2,2,3,3,4,4,5,5,6,6,7,7,8,8,9,9,10,10,11,11,12,12,13,13,14,14,15,15,16,16,17,17,18,18,19,19,20,20,21,21,22,22,23,23,24,24,26,26,29,29,30,30,31,31,32,32,33,33,35,35,39,39,41,41,42,42,43,43,44,44,45,45,47,47,48,48,55,55,56,56],"right_children":[2,4,6,8,10,12,14,16,18,20,22,24,26,28,30,32,34,36,38,40,42,44,46,48,50,-1,52,-1,-1,54,56,58,60,62,-1,64,-1,-1,-1,66,-1,68,70,72,74,76,-1,78,80,-1,-1,-1,-1,-1,-1,82,84,-1,-1,-1,-1,-1,-1,-1,-1,-1,-1,-1,-1,-1,-1,-1,-1,-1,-1,-1,-1,-1,-1,-1,-1,-1,-1,-1,-1],"split_conditions":[1.3E2,3E1,1E0,2.74E1,2.58E1,1E0,1.31E2,1.21E2,1.11E2,1E0,8.7E1,8.2E1,4E1,3.4E1,7.85E1,1E0,7.95E1,2.7E1,2.9E1,8.8E1,2.45E1,6.6E1,1.265E2,9.25E1,9E1,-5.0145023E-2,7.7E1,1.0350978E-1,-2.5798625E-1,3.25E1,5.8E1,2.7E1,2.3E1,7.25E1,-2.5728756E-1,1E0,-2.7174225E-1,-3.138041E-1,-3.885787E-2,4.8E1,3.5224605E-1,2.14E1,2.5E1,3.14E1,1.28E2,1E0,-1.4827226E-1,3.19E1,2.85E1,4.1700646E-1,1.0331349E-1,3.4692565E-1,1.025861E-1,3.6516404E-1,-9.705763E-3,2.68E1,1.385E2,-2.802263E-1,-1.5877299E-1,1.0768974E-1,-1.9660552E-1,-2.1700849E-1,1.8592982E-1,2.5526303E-1,-1.7646351E-1,-1.9919778E-1,-1.0118462E-1,-2.3233037E-1,3.4780917E-1,-7.009147E-2,-2.671661E-1,-8.109728E-2,4.400915E-2,1.1544506E-1,-2.8837883E-1,2.1935567E-1,4.5728225E-1,3.1905152E-2,2.0651557E-1,3.9130592E-1,6.849958E-2,8.26865E-2,-1.8890192E-1,2.9679537E-1,-2.9792644E-2],"split_indices":[2,1,7,4,4,5,2,2,2,5,3,1,1,1,3,5,3,1,1,1,4,1,2,3,1,0,1,0,0,4,1,1,1,3,0,0,0,0,0,1,0,4,4,4,2,6,0,4,4,0,0,0,0,0,0,4,2,0,0,0,0,0,0,0,0,0,0,0,0,0,0,0,0,0,0,0,0,0,0,0,0,0,0,0,0],"split_type":[0,0,0,0,0,0,0,0,0,0,0,0,0,0,0,0,0,0,0,0,0,0,0,0,0,0,0,0,0,0,0,0,0,0,0,0,0,0,0,0,0,0,0,0,0,0,0,0,0,0,0,0,0,0,0,0,0,0,0,0,0,0,0,0,0,0,0,0,0,0,0,0,0,0,0,0,0,0,0,0,0,0,0,0,0],"sum_hessian":[6.075883E2,4.6650638E2,1.4108195E2,9.450121E1,3.7200516E2,9.507987E1,4.6002083E1,7.14291E1,2.3072111E1,1.4535738E2,2.266478E2,7.787358E1,1.7206295E1,1.4023619E1,3.1978464E1,6.273309E1,8.696012E0,1.2087577E1,1.0984534E1,1.3282018E2,1.2537201E1,2.1398715E2,1.2660645E1,7.236006E1,5.5135217E0,1.4000783E0,1.5806217E1,2.4196713E0,1.1603948E1,4.2813416E0,2.7697123E1,6.036727E1,2.3658159E0,5.022873E0,3.6731381E0,7.954482E0,4.133095E0,9.8842125E0,1.1003214E0,1.3129141E2,1.5287651E0,9.1736E0,3.3636012E0,1.7938512E2,3.460203E1,1.1017668E1,1.6429763E0,6.1505077E1,1.0854981E1,4.398353E0,1.1151683E0,1.4579933E1,1.2262833E0,3.0718973E0,1.2094443E0,1.4721546E1,1.2975576E1,5.018531E1,1.0181959E1,1.051113E0,1.314703E0,1.9089019E0,3.113971E0,6.8861246E0,1.0683576E0,5.2451134E1,7.884028E1,1.9209975E0,7.2526026E0,1.2346267E0,2.1289744E0,1.3317805E2,4.620706E1,3.341515E1,1.1868792E0,8.852264E0,2.165403E0,5.01622E1,1.1342875E1,5.602482E0,5.2524996E0,6.665344E0,8.056202E0,5.2656283E0,7.709948E0],"tree_param":{"num_deleted":"0","num_feature":"8","num_nodes":"85","size_leaf_vector":"1"}},{"base_weights":[-1.0939521E-1,-4.3801785E-1,3.7337244E-2,-6.231851E-1,-2.5216547E-1,-4.7865056E-2,4.517451E-1,-5.187866E-1,-8.026174E-1,-6.978033E-1,-1.4465824E-1,-3.7040532E-1,2.1999724E-2,3.503981E-1,8.9642656E-1,-6.466128E-1,-1.9757366E-1,-9.149499E-1,-1.497508E-1,-8.5453385E-1,2.688684E-1,3.1169823E-1,-2.3501761E-1,-4.8808384E-1,7.225167E-2,4.142416E-1,-1.5375631E-2,1.6473268E-1,5.7764333E-1,6.2282126E-2,1.0051652E0,-6.991104E-1,1.4762676E-1,2.1055885E-1,-7.633043E-1,-5.35318E-1,-3.0657414E-1,2.8482655E-1,-2.664176E-1,7.3203415E-2,-9.684254E-1,4.832612E-1,-2.0168494E-1,-3.062837E-1,7.493094E-1,-6.411994E-1,-1.6501637E-1,4.8544374E-1,-2.0293501E-1,-4.5790628E-1,9.210576E-1,-4.3265456E-1,2.2983557E-2,5.3419862E-2,2.6091138E-1,2.2506358E-1,1.0832834E0,3.258965E-1,6.859656E-2,-1.825388E-2,-2.2467028E-1,1.5796375E-1,-2.2710232E-1,3.6576144E-2,-2.9316312E-1,-2.6484004E-1,1.3906577E-1,-6.969711E-2,-3.0894658E-1,-1.0342061E-1,2.0180993E-1,-1.8549724E-1,-2.5463773E-2,4.306949E-1,7.3744687E-3,-2.434538E-1,-1.4689068E-2,7.107486E-2,-1.4312118E-1,-1.3519491E-1,1.1859864E-1,-2.827263E-1,6.1533626E-2,1.997347E-1,6.755955E-1,-2.9801077E-1,-3.9906185E-2,2.957414E-1,2.1614884E-3,8.052517E-2,-1.238989E-1,1.3627322E-1,-1.2863383E-1,6.948642E-2,4.2773962E-1],"categories":[],"categories_nodes":[],"categories_segments":[],"categories_sizes":[],"default_left":[0,0,0,0,0,0,0,0,0,0,0,0,0,0,0,0,0,0,0,0,0,0,0,0,0,0,0,0,0,0,0,0,0,0,0,0,0,0,0,0,0,0,0,0,0,0,0,0,0,0,0,0,0,0,0,0,0,0,0,0,0,0,0,0,0,0,0,0,0,0,0,0,0,0,0,0,0,0,0,0,0,0,0,0,0,0,0,0,0,0,0,0,0,0,0],"id":5,"left_children":[1,3,5,7,9,11,13,15,17,19,21,23,25,27,29,31,33,35,37,39,-1,41,43,45,47,49,51,53,55,-1,57,59,-1,61,63,65,-1,-1,-1,-1,67,69,-1,71,73,75,77,-1,79,81,83,85,87,89,-1,91,93,-1,-1,-1,-1,-1,-1,-1,-1,-1,-1,-1,-1,-1,-1,-1,-1,-1,-1,-1,-1,-1,-1,-1,-1,-1,-1,-1,-1,-1,-1,-1,-1,-1,-1,-1,-1,-1,-1],"loss_changes":[2.7709404E1,5.9463654E0,1.4072794E1,1.235115E0,4.2202E0,7.466798E0,2.748745E0,2.2767859E0,2.1071377E0,5.0800533E0,3.1216712E0,3.1079578E0,4.0086803E0,2.309317E0,6.8807983E-1,2.8219643E0,4.3423586E0,5.05167E-1,5.458984E0,2.2674656E0,0E0,2.4600754E0,4.5982394E0,2.2056532E0,5.968937E0,1.0935794E1,4.015072E0,2.5245373E0,4.2535105E0,0E0,3.8682842E-1,1.2268219E0,0E0,3.8548365E0,1.5972776E0,3.115195E0,0E0,0E0,0E0,0E0,4.3461704E-1,2.0125217E0,0E0,4.0086756E0,2.200422E0,3.1229992E0,2.166443E0,0E0,1.9778926E0,3.21627E0,3.7247667E0,3.4155178E0,3.4886189E0,3.055102E0,0E0,2.6110616E0,2.6164122E0,0E0,0E0,0E0,0E0,0E0,0E0,0E0,0E0,0E0,0E0,0E0,0E0,0E0,0E0,0E0,0E0,0E0,0E0,0E0,0E0,0E0,0E0,0E0,0E0,0E0,0E0,0E0,0E0,0E0,0E0,0E0,0E0,0E0,0E0,0E0,0E0,0E0,0E0],"parents":[2147483647,0,0,1,1,2,2,3,3,4,4,5,5,6,6,7,7,8,8,9,9,10,10,11,11,12,12,13,13,14,14,15,15,16,16,17,17,18,18,19,19,21,21,22,22,23,23,24,24,25,25,26,26,27,27,28,28,30,30,31,31,33,33,34,34,35,35,40,40,41,41,43,43,44,44,45,45,46,46,48,48,49,49,50,50,51,51,52,52,53,53,55,55,56,56],"right_children":[2,4,6,8,10,12,14,16,18,20,22,24,26,28,30,32,34,36,38,40,-1,42,44,46,48,50,52,54,56,-1,58,60,-1,62,64,66,-1,-1,-1,-1,68,70,-1,72,74,76,78,-1,80,82,84,86,88,90,-1,92,94,-1,-1,-1,-1,-1,-1,-1,-1,-1,-1,-1,-1,-1,-1,-1,-1,-1,-1,-1,-1,-1,-1,-1,-1,-1,-1,-1,-1,-1,-1,-1,-1,-1,-1,-1,-1,-1,-1],"split_conditions":[4.1E1,3E1,1.345E2,1E0,1E2,1.035E2,1E0,2.74E1,1.25E2,7.15E1,6.85E1,3.1E1,6.15E1,2.87E1,1.36E2,8.65E1,1.11E2,2.24E1,7.55E1,2.06E1,2.688684E-1,3.23E1,3.62E1,6.6E1,3.12E1,1.11E2,2.22E1,8.2E1,1.405E2,6.2282126E-2,9.8E1,1.95E1,1.4762676E-1,2.7E1,7.05E1,1.13E2,-3.0657414E-1,2.8482655E-1,-2.664176E-1,7.3203415E-2,3.1E1,1.01E2,-2.0168494E-1,7.75E1,1.195E2,6.5E1,2.47E1,4.8544374E-1,5.7E1,5.9E1,6.05E1,1.115E2,1.05E2,6.9E1,2.6091138E-1,3.4E1,5.3E1,3.258965E-1,6.859656E-2,-1.825388E-2,-2.2467028E-1,1.5796375E-1,-2.2710232E-1,3.6576144E-2,-2.9316312E-1,-2.6484004E-1,1.3906577E-1,-6.969711E-2,-3.0894658E-1,-1.0342061E-1,2.0180993E-1,-1.8549724E-1,-2.5463773E-2,4.306949E-1,7.3744687E-3,-2.434538E-1,-1.4689068E-2,7.107486E-2,-1.4312118E-1,-1.3519491E-1,1.1859864E-1,-2.827263E-1,6.1533626E-2,1.997347E-1,6.755955E-1,-2.9801077E-1,-3.9906185E-2,2.957414E-1,2.1614884E-3,8.052517E-2,-1.238989E-1,1.3627322E-1,-1.2863383E-1,6.948642E-2,4.2773962E-1],"split_indices":[1,1,2,0,2,2,5,4,2,3,3,4,3,4,2,3,2,4,3,4,0,4,4,3,4,2,4,1,2,0,3,4,0,1,3,2,0,0,0,0,1,2,0,3,2,1,4,0,1,1,3,2,2,1,0,4,1,0,0,0,0,0,0,0,0,0,0,0,0,0,0,0,0,0,0,0,0,0,0,0,0,0,0,0,0,0,0,0,0,0,0,0,0,0,0],"split_type":[0,0,0,0,0,0,0,0,0,0,0,0,0,0,0,0,0,0,0,0,0,0,0,0,0,0,0,0,0,0,0,0,0,0,0,0,0,0,0,0,0,0,0,0,0,0,0,0,0,0,0,0,0,0,0,0,0,0,0,0,0,0,0,0,0,0,0,0,0,0,0,0,0,0,0,0,0,0,0,0,0,0,0,0,0,0,0,0,0,0,0,0,0,0,0],"sum_hessian":[5.7331104E2,1.7635669E2,3.969543E2,8.7162445E1,8.919425E1,3.2999237E2,6.696197E1,5.7562378E1,2.9600065E1,1.62683E1,7.292595E1,5.798678E1,2.7200558E2,5.5989433E1,1.0972532E1,4.0451664E1,1.7110714E1,2.4912222E1,4.687843E0,1.5234326E1,1.0339732E0,1.1648107E1,6.1277843E1,4.572765E1,1.225913E1,2.2786419E1,2.4921916E2,3.1763071E1,2.4226364E1,1.8926324E0,9.0799E0,3.9037945E1,1.4137194E0,1.0304556E1,6.8061585E0,6.7961726E0,1.8116049E1,1.768703E0,2.9191399E0,1.3237325E0,1.3910593E1,1.0352039E1,1.2960677E0,5.7783134E1,3.4947078E0,3.035594E1,1.5371708E1,1.1150467E0,1.1144082E1,8.41025E0,1.4376169E1,2.0115852E1,2.2910332E2,2.8360771E1,3.4022994E0,1.512494E1,9.101424E0,7.8594913E0,1.2204089E0,2.9857476E0,3.6052197E1,8.11136E0,2.193196E0,1.4082623E0,5.3978963E0,5.12835E0,1.6678227E0,1.4392269E0,1.2471367E1,1.774834E0,8.577205E0,2.3238625E1,3.454451E1,1.291072E0,2.203636E0,2.3288467E1,7.0674734E0,6.823578E0,8.54813E0,8.055424E0,3.0886588E0,4.6157694E0,3.7944806E0,1.33213415E1,1.0548275E0,6.1994143E0,1.3916439E1,2.702742E0,2.2640057E2,1.9703045E1,8.657726E0,1.1425444E1,3.6994963E0,3.0912607E0,6.0101633E0],"tree_param":{"num_deleted":"0","num_feature":"8","num_nodes":"95","size_leaf_vector":"1"}},{"base_weights":[-8.521238E-2,-5.4463995E-1,-1.1634399E-2,1.3743933E-1,-5.6854975E-1,-8.508703E-2,3.18655E-1,-1.8124862E-1,2.8359124E-1,-3.7304607E-1,-6.865399E-1,-1.9072092E-1,7.418693E-2,2.5540203E-1,9.5996684E-1,3.5625944E-1,-4.9952337E-1,-7.3349243E-1,7.644433E-2,-4.4106156E-1,-7.645108E-2,2.746991E-2,6.3685155E-1,1.4953107E-1,5.333205E-1,3.4079987E-1,-1.8130768E-2,-2.8921875E-1,4.337297E-1,-2.8859547E-1,-2.8423673E-1,-9.1384053E-1,-4.4985217E-1,-7.220958E-1,-3.163746E-1,-1.7069057E-1,3.403522E-1,9.573773E-2,-4.7089228E-1,9.052579E-1,-2.361399E-1,2.1277384E-1,-5.772352E-1,7.5199865E-2,7.292863E-1,1.0044889E-1,-2.0324463E-1,9.735808E-2,-1.6819702E-1,-3.0562958E-1,2.0943442E-2,7.845591E-2,-1.7548335E-1,-6.728124E-2,-2.5663236E-1,1.6484888E-2,-1.7709157E-1,-7.482296E-2,1.2980415E-1,1.722835E-1,-7.0641205E-2,-1.9776965E-2,1.0608971E-1,-2.0713003E-1,-2.031212E-2,3.5271165E-1,4.00988E-2,-2.3498982E-1,1.4921363E-1,4.4860773E-2,2.5908569E-1,-2.6645905E-1,9.255375E-2,2.2257955E-1,-1.8312477E-1,4.2963457E-1,7.6200426E-2],"categories":[],"categories_nodes":[],"categories_segments":[],"categories_sizes":[],"default_left":[0,0,0,0,0,0,0,0,0,0,0,0,0,0,0,0,0,0,0,0,0,0,0,0,0,0,0,0,0,0,0,0,0,0,0,0,0,0,0,0,0,0,0,0,0,0,0,0,0,0,0,0,0,0,0,0,0,0,0,0,0,0,0,0,0,0,0,0,0,0,0,0,0,0,0,0,0],"id":6,"left_children":[1,3,5,7,9,11,13,-1,-1,15,17,19,21,23,25,27,29,31,-1,33,35,37,39,41,43,-1,-1,45,-1,-1,47,49,51,53,55,57,59,61,63,65,67,69,71,73,75,-1,-1,-1,-1,-1,-1,-1,-1,-1,-1,-1,-1,-1,-1,-1,-1,-1,-1,-1,-1,-1,-1,-1,-1,-1,-1,-1,-1,-1,-1,-1,-1],"loss_changes":[1.8555521E1,1.3139687E0,1.1534598E1,2.5911674E0,1.4372063E0,6.555982E0,3.2638855E0,0E0,0E0,2.9284143E0,2.1576805E0,6.6618013E0,4.0769653E0,2.2771163E0,1.3985162E0,3.9277844E0,2.298019E0,1.7746296E0,0E0,2.3346205E0,6.417911E0,4.973841E0,3.0012865E0,2.8527532E0,1.8939166E0,0E0,0E0,1.1880755E0,0E0,0E0,3.3863826E0,2.6669006E0,1.9383006E0,1.2485905E0,5.367016E0,6.411748E0,4.2020464E0,5.3700986E0,1.5131545E0,1.7847428E0,1.8306972E0,2.1498005E0,1.6578118E0,3.9354296E0,4.676464E0,0E0,0E0,0E0,0E0,0E0,0E0,0E0,0E0,0E0,0E0,0E0,0E0,0E0,0E0,0E0,0E0,0E0,0E0,0E0,0E0,0E0,0E0,0E0,0E0,0E0,0E0,0E0,0E0,0E0,0E0,0E0,0E0],"parents":[2147483647,0,0,1,1,2,2,3,3,4,4,5,5,6,6,9,9,10,10,11,11,12,12,13,13,14,14,15,15,16,16,17,17,19,19,20,20,21,21,22,22,23,23,24,24,27,27,30,30,31,31,32,32,33,33,34,34,35,35,36,36,37,37,38,38,39,39,40,40,41,41,42,42,43,43,44,44],"right_children":[2,4,6,8,10,12,14,-1,-1,16,18,20,22,24,26,28,30,32,-1,34,36,38,40,42,44,-1,-1,46,-1,-1,48,50,52,54,56,58,60,62,64,66,68,70,72,74,76,-1,-1,-1,-1,-1,-1,-1,-1,-1,-1,-1,-1,-1,-1,-1,-1,-1,-1,-1,-1,-1,-1,-1,-1,-1,-1,-1,-1,-1,-1,-1,-1],"split_conditions":[3E1,8.6E1,1.315E2,2.41E1,1E0,5.7E1,1.61E2,-1.8124862E-1,2.8359124E-1,2.19E1,1E0,2.56E1,8.9E1,3.12E1,1E0,2.14E1,1.05E2,2.4E1,7.644433E-2,6.6E1,8.25E1,8.05E1,1E0,3.08E1,8.15E1,3.4079987E-1,-1.8130768E-2,1.95E1,4.337297E-1,-2.8859547E-1,2.3E1,1.255E2,9.65E1,3.5E1,1.115E2,1E0,1.295E2,2.78E1,1.265E2,2.74E1,6.4E1,8.2E1,6E1,7.9E1,8.9E1,1.0044889E-1,-2.0324463E-1,9.735808E-2,-1.6819702E-1,-3.0562958E-1,2.0943442E-2,7.845591E-2,-1.7548335E-1,-6.728124E-2,-2.5663236E-1,1.6484888E-2,-1.7709157E-1,-7.482296E-2,1.2980415E-1,1.722835E-1,-7.0641205E-2,-1.9776965E-2,1.0608971E-1,-2.0713003E-1,-2.031212E-2,3.5271165E-1,4.00988E-2,-2.3498982E-1,1.4921363E-1,4.4860773E-2,2.5908569E-1,-2.6645905E-1,9.255375E-2,2.2257955E-1,-1.8312477E-1,4.2963457E-1,7.6200426E-2],"split_indices":[1,2,2,4,7,1,2,0,0,4,5,4,3,4,6,4,2,1,0,3,3,3,7,4,3,0,0,4,0,0,1,2,2,1,2,6,2,4,2,4,1,1,1,3,3,0,0,0,0,0,0,0,0,0,0,0,0,0,0,0,0,0,0,0,0,0,0,0,0,0,0,0,0,0,0,0,0],"split_type":[0,0,0,0,0,0,0,0,0,0,0,0,0,0,0,0,0,0,0,0,0,0,0,0,0,0,0,0,0,0,0,0,0,0,0,0,0,0,0,0,0,0,0,0,0,0,0,0,0,0,0,0,0,0,0,0,0,0,0,0,0,0,0,0,0,0,0,0,0,0,0,0,0,0,0,0,0],"sum_hessian":[5.481063E2,7.4778755E1,4.7332758E2,2.3717318E0,7.240703E1,3.878226E2,8.5504974E1,1.3680462E0,1.0036856E0,2.881827E1,4.3588757E1,2.3305687E2,1.5476572E2,7.910141E1,6.4035697E0,3.9905856E0,2.4827684E1,4.172826E1,1.8604956E0,7.214433E1,1.6091254E2,1.4386934E2,1.0896388E1,5.8394497E1,2.0706911E1,5.3647885E0,1.0387812E0,2.9672055E0,1.0233802E0,6.784778E0,1.8042906E1,2.4150637E1,1.7577625E1,2.0699062E1,5.144527E1,1.3172086E2,2.9191692E1,1.2724645E2,1.6622879E1,8.305769E0,2.5906186E0,5.4370445E1,4.024052E0,6.618411E0,1.4088501E1,1.1908295E0,1.7763759E0,5.5799866E0,1.246292E1,2.1790573E1,2.360064E0,2.6559594E0,1.4921665E1,4.939618E0,1.5759444E1,2.2179476E1,2.9265795E1,1.1703803E2,1.4682819E1,2.0760496E1,8.431197E0,7.867408E1,4.8572372E1,1.0301236E1,6.321642E0,5.762318E0,2.5434513E0,1.444927E0,1.1456916E0,5.0676346E1,3.6940997E0,2.9763672E0,1.047685E0,3.3137712E0,3.3046398E0,4.8715343E0,9.216967E0],"tree_param":{"num_deleted":"0","num_feature":"8","num_nodes":"77","size_leaf_vector":"1"}},{"base_weights":[-6.636486E-2,-4.6162978E-1,-9.303453E-3,-3.5110775E-1,-6.7306024E-1,-1.0658383E-1,1.5941072E-1,-5.78708E-1,-1.5176028E-1,-8.9855E-1,-2.2750337E-1,-1.4408837E-1,3.3653137E-1,1.3142748E-1,8.4361917E-1,-7.0175296E-1,7.785042E-3,1.1558729E-1,-5.5557936E-1,-2.87048E-1,-1.0840249E-1,9.6999747E-1,-7.960087E-1,-3.3716857E-1,-8.889036E-2,-6.245518E-2,8.077687E-1,7.968187E-2,4.7300255E-1,3.0711177E-1,-1.5385124E-2,-8.3462685E-1,-8.312215E-2,1.8751983E-1,-2.0384423E-1,-1.9997072E-1,2.3726472E-1,-7.535822E-1,6.6178784E-2,4.7966555E-1,-3.780255E-2,-3.8361937E-2,-2.698619E-1,-4.445612E-1,4.8643702E-1,2.6408237E-1,-2.0410942E-1,-4.5420322E-1,4.073351E-1,-1.6030287E-2,9.614601E-1,8.723335E-1,5.217511E-2,1.9485942E-1,8.5109746E-1,-1.11684024E-1,-2.839509E-1,1.3507274E-1,-1.1979351E-1,1.161901E-1,-1.2691124E-1,-5.714991E-2,-2.7748057E-1,-1.9603655E-1,-2.494636E-2,3.2872936E-1,-1.06614195E-1,4.231416E-2,4.957081E-1,-2.2557108E-2,-1.2129729E-1,-4.384868E-2,-2.5823584E-1,2.4406621E-1,-1.05799E-1,1.8161083E-2,3.235099E-1,4.2263985E-2,3.4190983E-1,-1.134552E-1,2.6793135E-2,1.7915694E-1,-9.2476614E-2,2.7720684E-1,6.0702253E-2],"categories":[],"categories_nodes":[],"categories_segments":[],"categories_sizes":[],"default_left":[0,0,0,0,0,0,0,0,0,0,0,0,0,0,0,0,0,0,0,0,0,0,0,0,0,0,0,0,0,0,0,0,0,0,0,0,0,0,0,0,0,0,0,0,0,0,0,0,0,0,0,0,0,0,0,0,0,0,0,0,0,0,0,0,0,0,0,0,0,0,0,0,0,0,0,0,0,0,0,0,0,0,0,0,0],"id":7,"left_children":[1,3,5,7,9,11,13,15,17,19,21,23,25,27,29,31,33,35,37,-1,-1,39,41,43,45,47,49,51,53,-1,-1,55,57,-1,-1,-1,59,61,-1,-1,-1,-1,-1,63,65,67,69,71,73,-1,75,77,79,81,83,-1,-1,-1,-1,-1,-1,-1,-1,-1,-1,-1,-1,-1,-1,-1,-1,-1,-1,-1,-1,-1,-1,-1,-1,-1,-1,-1,-1,-1,-1],"loss_changes":[1.1890488E1,1.317853E0,7.5975227E0,1.9887428E0,1.9798822E0,4.9270277E0,3.1309576E0,1.521956E0,2.8446012E0,9.557438E-2,6.6572833E0,2.861958E0,4.413761E0,2.8583643E0,1.0949273E0,1.3593426E0,2.3903027E0,1.7116271E0,1.7692938E0,0E0,0E0,2.4302723E0,3.2844353E-1,5.520451E0,8.691179E0,2.668643E0,1.4691939E0,3.0831807E0,2.0798063E0,0E0,0E0,3.8199806E-1,8.853536E-1,0E0,0E0,0E0,1.6363063E0,6.475167E-1,0E0,0E0,0E0,0E0,0E0,3.9902554E0,4.18265E0,8.768653E0,4.1169367E0,8.550447E-1,2.344112E0,0E0,8.9762115E-1,7.6818466E-1,2.2671545E0,2.936971E0,2.2717714E-1,0E0,0E0,0E0,0E0,0E0,0E0,0E0,0E0,0E0,0E0,0E0,0E0,0E0,0E0,0E0,0E0,0E0,0E0,0E0,0E0,0E0,0E0,0E0,0E0,0E0,0E0,0E0,0E0,0E0,0E0],"parents":[2147483647,0,0,1,1,2,2,3,3,4,4,5,5,6,6,7,7,8,8,9,9,10,10,11,11,12,12,13,13,14,14,15,15,16,16,17,17,18,18,21,21,22,22,23,23,24,24,25,25,26,26,27,27,28,28,31,31,32,32,36,36,37,37,43,43,44,44,45,45,46,46,47,47,48,48,50,50,51,51,52,52,53,53,54,54],"right_children":[2,4,6,8,10,12,14,16,18,20,22,24,26,28,30,32,34,36,38,-1,-1,40,42,44,46,48,50,52,54,-1,-1,56,58,-1,-1,-1,60,62,-1,-1,-1,-1,-1,64,66,68,70,72,74,-1,76,78,80,82,84,-1,-1,-1,-1,-1,-1,-1,-1,-1,-1,-1,-1,-1,-1,-1,-1,-1,-1,-1,-1,-1,-1,-1,-1,-1,-1,-1,-1,-1,-1],"split_conditions":[3E1,1E0,1.25E2,2.45E1,1.2E2,3.4E1,1.61E2,1.205E2,1.115E2,1E0,7.45E1,1.01E2,1E0,1E0,1E0,2.7E1,7.95E1,5.75E1,8.6E1,-2.87048E-1,-1.0840249E-1,1E0,7.65E1,7.25E1,6.85E1,7.65E1,3.47E1,6.05E1,8.35E1,3.0711177E-1,-1.5385124E-2,1E2,2.2E1,1.8751983E-1,-2.0384423E-1,-1.9997072E-1,2.8E1,7.05E1,6.6178784E-2,4.7966555E-1,-3.780255E-2,-3.8361937E-2,-2.698619E-1,5.4E1,7.8E1,1.205E2,1E0,1.11E2,8.05E1,-1.6030287E-2,6.05E1,2.48E1,2.21E1,7.95E1,1.5E2,-1.11684024E-1,-2.839509E-1,1.3507274E-1,-1.1979351E-1,1.161901E-1,-1.2691124E-1,-5.714991E-2,-2.7748057E-1,-1.9603655E-1,-2.494636E-2,3.2872936E-1,-1.06614195E-1,4.231416E-2,4.957081E-1,-2.2557108E-2,-1.2129729E-1,-4.384868E-2,-2.5823584E-1,2.4406621E-1,-1.05799E-1,1.8161083E-2,3.235099E-1,4.2263985E-2,3.4190983E-1,-1.134552E-1,2.6793135E-2,1.7915694E-1,-9.2476614E-2,2.7720684E-1,6.0702253E-2],"split_indices":[1,0,2,4,2,4,2,2,2,6,3,2,7,5,6,1,3,3,3,0,0,7,3,3,3,3,4,3,3,0,0,2,4,0,0,0,1,3,0,0,0,0,0,1,3,2,7,2,3,0,3,4,4,3,2,0,0,0,0,0,0,0,0,0,0,0,0,0,0,0,0,0,0,0,0,0,0,0,0,0,0,0,0,0,0],"split_type":[0,0,0,0,0,0,0,0,0,0,0,0,0,0,0,0,0,0,0,0,0,0,0,0,0,0,0,0,0,0,0,0,0,0,0,0,0,0,0,0,0,0,0,0,0,0,0,0,0,0,0,0,0,0,0,0,0,0,0,0,0,0,0,0,0,0,0,0,0,0,0,0,0,0,0,0,0,0,0,0,0,0,0,0,0],"sum_hessian":[5.263825E2,6.550926E1,4.6087326E2,4.476807E1,2.074119E1,2.925548E2,1.6831847E2,2.0014254E1,2.4753815E1,1.3096536E1,7.6446548E0,2.7034784E2,2.2206968E1,1.628502E2,5.4682746E0,1.6381027E1,3.633227E0,1.5323012E1,9.430802E0,1.11101885E1,1.9863473E0,2.2335906E0,5.411064E0,5.8968906E1,2.1137892E2,1.2495099E1,9.711868E0,1.424965E2,2.0353687E1,4.432389E0,1.0358858E0,1.3197272E1,3.1837554E0,1.9617481E0,1.6714789E0,1.4599735E0,1.3863038E1,7.537173E0,1.8936294E0,1.1276926E0,1.1058981E0,1.0258529E0,4.385211E0,5.2573853E1,6.395051E0,5.1701077E1,1.5967786E2,6.831575E0,5.6635246E0,1.5695114E0,8.142357E0,3.7490208E0,1.387475E2,1.2599971E1,7.753717E0,3.4143815E0,9.78289E0,1.0271473E0,2.1566079E0,1.1633169E1,2.2298691E0,2.2512114E0,5.2859616E0,3.280462E1,1.9769236E1,3.5348084E0,2.8602426E0,4.8504036E1,3.1970382E0,9.79701E1,6.170775E1,4.660279E0,2.171296E0,3.6448734E0,2.0186515E0,1.1095515E0,7.032805E0,1.412273E0,2.3367476E0,1.0291856E1,1.2845563E2,6.8973327E0,5.702638E0,6.5887876E0,1.1649293E0],"tree_param":{"num_deleted":"0","num_feature":"8","num_nodes":"85","size_leaf_vector":"1"}},{"base_weights":[-5.215646E-2,-3.9979205E-1,-6.113454E-3,-3.0143717E-1,-6.0641944E-1,-4.062997E-2,2.827676E-1,-5.430324E-1,-1.5345256E-1,-8.5419637E-1,-1.7979994E-1,-1.7669742E-1,3.796721E-2,1.1899562E-1,8.599967E-1,1.4334883E-1,-6.733051E-1,2.5597566E-1,-2.25847E-1,-2.771488E-1,-9.3699336E-2,5.88906E-1,-2.551097E-1,-3.2686633E-1,1.5529589E-2,1.1028137E0,1.7432606E-2,6.2889194E-1,-8.082181E-2,1.0703168E0,2.6238123E-1,1.3209607E-1,-5.26688E-2,-7.587756E-1,-2.1719961E-1,-6.6310424E-1,-1.2318606E-1,3.473827E-1,-9.862275E-4,-2.1806973E-1,-6.1486673E-1,-4.3885973E-1,1.2114764E-1,-1.674216E-2,5.0361073E-1,-8.739529E-3,7.5349355E-1,-2.8881407E-1,9.24465E-1,2.5585926E-1,-5.793243E-1,4.4038036E-1,4.0821213E-1,-2.0493744E-1,2.6752314E-1,-2.4930044E-1,-1.2707623E-2,1.2515335E-1,-1.9293767E-1,-1.8537594E-2,-2.4270698E-1,3.275094E-2,-1.286466E-1,-2.5468059E-2,2.5405118E-2,-1.853408E-1,-1.4428465E-2,-8.413028E-2,-2.9008353E-1,6.428937E-2,-1.9372801E-1,-9.000665E-2,8.1876166E-2,-3.3307754E-2,3.0141437E-2,2.86309E-1,-7.153922E-2,1.0263652E-1,-2.2068588E-1,-1.9532362E-1,3.856124E-1,1.4200649E-1,-8.118321E-2,-2.4748878E-1,4.9905773E-2,-1.6207953E-1,2.739076E-1],"categories":[],"categories_nodes":[],"categories_segments":[],"categories_sizes":[],"default_left":[0,0,0,0,0,0,0,0,0,0,0,0,0,0,0,0,0,0,0,0,0,0,0,0,0,0,0,0,0,0,0,0,0,0,0,0,0,0,0,0,0,0,0,0,0,0,0,0,0,0,0,0,0,0,0,0,0,0,0,0,0,0,0,0,0,0,0,0,0,0,0,0,0,0,0,0,0,0,0,0,0,0,0,0,0,0,0],"id":8,"left_children":[1,3,5,7,9,11,13,15,17,19,21,23,25,27,29,31,33,-1,35,-1,-1,37,-1,39,41,43,45,47,49,51,53,-1,-1,55,57,59,61,-1,63,65,67,69,71,-1,-1,73,75,77,79,81,83,-1,85,-1,-1,-1,-1,-1,-1,-1,-1,-1,-1,-1,-1,-1,-1,-1,-1,-1,-1,-1,-1,-1,-1,-1,-1,-1,-1,-1,-1,-1,-1,-1,-1,-1,-1],"loss_changes":[8.184888E0,1.0326815E0,4.525455E0,1.4364715E0,1.7807951E0,4.340758E0,4.4771647E0,1.5051413E0,2.2155285E0,1.3818741E-1,4.6193495E0,4.293432E0,5.615713E0,4.013886E0,1.044702E0,3.9338684E-1,3.5819912E-1,0E0,1.1161505E0,0E0,0E0,1.4490212E0,0E0,2.4806461E0,3.2258832E0,3.3360848E0,4.8966575E0,3.268417E0,4.9872417E0,1.3689184E0,3.0311317E0,0E0,0E0,5.286851E-1,1.2189461E0,3.751781E-1,1.6687285E0,0E0,2.9595401E-2,4.190836E0,2.358221E0,1.852576E0,3.5608444E0,0E0,0E0,2.760442E0,1.9665532E0,1.2263877E0,5.731395E0,2.17804E0,2.3222437E0,0E0,2.499581E0,0E0,0E0,0E0,0E0,0E0,0E0,0E0,0E0,0E0,0E0,0E0,0E0,0E0,0E0,0E0,0E0,0E0,0E0,0E0,0E0,0E0,0E0,0E0,0E0,0E0,0E0,0E0,0E0,0E0,0E0,0E0,0E0,0E0,0E0],"parents":[2147483647,0,0,1,1,2,2,3,3,4,4,5,5,6,6,7,7,8,8,9,9,10,10,11,11,12,12,13,13,14,14,15,15,16,16,18,18,21,21,23,23,24,24,25,25,26,26,27,27,28,28,29,29,30,30,33,33,34,34,35,35,36,36,38,38,39,39,40,40,41,41,42,42,45,45,46,46,47,47,48,48,49,49,50,50,52,52],"right_children":[2,4,6,8,10,12,14,16,18,20,22,24,26,28,30,32,34,-1,36,-1,-1,38,-1,40,42,44,46,48,50,52,54,-1,-1,56,58,60,62,-1,64,66,68,70,72,-1,-1,74,76,78,80,82,84,-1,86,-1,-1,-1,-1,-1,-1,-1,-1,-1,-1,-1,-1,-1,-1,-1,-1,-1,-1,-1,-1,-1,-1,-1,-1,-1,-1,-1,-1,-1,-1,-1,-1,-1,-1],"split_conditions":[3E1,1E0,1E0,2.39E1,1.2E2,1.135E2,8.35E1,1.95E1,8.6E1,1E0,7.55E1,1E0,5.85E1,2.45E1,1E0,1.01E2,1.205E2,2.5597566E-1,6.05E1,-2.771488E-1,-9.3699336E-2,2.36E1,-2.551097E-1,1E0,5.85E1,2.48E1,8.2E1,2.21E1,1E0,5.7E1,1.305E2,1.3209607E-1,-5.26688E-2,8E1,2.2E1,2.51E1,1.115E2,3.473827E-1,1.255E2,6.15E1,2.58E1,8.5E1,2.46E1,-1.674216E-2,5.0361073E-1,2.79E1,9E1,5.4E1,5E1,6.8E1,1.315E2,4.4038036E-1,6.5E1,-2.0493744E-1,2.6752314E-1,-2.4930044E-1,-1.2707623E-2,1.2515335E-1,-1.9293767E-1,-1.8537594E-2,-2.4270698E-1,3.275094E-2,-1.286466E-1,-2.5468059E-2,2.5405118E-2,-1.853408E-1,-1.4428465E-2,-8.413028E-2,-2.9008353E-1,6.428937E-2,-1.9372801E-1,-9.000665E-2,8.1876166E-2,-3.3307754E-2,3.0141437E-2,2.86309E-1,-7.153922E-2,1.0263652E-1,-2.2068588E-1,-1.9532362E-1,3.856124E-1,1.4200649E-1,-8.118321E-2,-2.4748878E-1,4.9905773E-2,-1.6207953E-1,2.739076E-1],"split_indices":[1,0,5,4,2,2,3,4,2,6,3,7,3,4,7,2,2,0,3,0,0,4,0,0,3,4,1,4,0,1,2,0,0,3,1,4,2,0,2,3,4,2,4,0,0,4,1,1,1,1,2,0,1,0,0,0,0,0,0,0,0,0,0,0,0,0,0,0,0,0,0,0,0,0,0,0,0,0,0,0,0,0,0,0,0,0,0],"split_type":[0,0,0,0,0,0,0,0,0,0,0,0,0,0,0,0,0,0,0,0,0,0,0,0,0,0,0,0,0,0,0,0,0,0,0,0,0,0,0,0,0,0,0,0,0,0,0,0,0,0,0,0,0,0,0,0,0,0,0,0,0,0,0,0,0,0,0,0,0,0,0,0,0,0,0,0,0,0,0,0,0,0,0,0,0,0,0],"sum_hessian":[5.1051047E2,5.8808605E1,4.5170187E2,4.1509083E1,1.7299524E1,4.0425894E2,4.744292E1,1.4753476E1,2.6755606E1,1.030957E1,6.9899535E0,1.4755815E2,2.567008E2,3.789692E1,9.5460005E0,2.3374631E0,1.2416013E1,1.071356E0,2.5684248E1,8.510956E0,1.7986147E0,3.3133998E0,3.6765535E0,8.244848E1,6.510967E1,3.8594463E0,2.5284135E2,1.0065171E1,2.7831749E1,6.475932E0,3.0700688E0,1.0132368E0,1.3242265E0,9.897671E0,2.518342E0,3.845631E0,2.1838617E1,1.1963627E0,2.117037E0,6.1117565E1,2.1330915E1,1.1684694E1,5.3424976E1,1.5812496E0,2.2781966E0,2.4511397E2,7.727396E0,2.4575982E0,7.6075735E0,1.6902678E1,1.09290695E1,3.2856865E0,3.1902454E0,1.1927496E0,1.8773192E0,8.845925E0,1.0517457E0,1.0198735E0,1.4984685E0,1.0289474E0,2.8166835E0,1.2771816E1,9.066802E0,1.0740999E0,1.0429373E0,1.7448631E1,4.3668934E1,1.1860943E1,9.469973E0,2.8023336E0,8.88236E0,1.3893561E1,3.9531414E1,1.2656106E2,1.185529E2,6.4576344E0,1.2697616E0,1.1159934E0,1.3416048E0,1.2680281E0,6.3395452E0,1.2032636E1,4.870043E0,8.140972E0,2.7880976E0,1.0837656E0,2.10648E0],"tree_param":{"num_deleted":"0","num_feature":"8","num_nodes":"87","size_leaf_vector":"1"}},{"base_weights":[-4.1580588E-2,-1.2952915E-1,9.210132E-2,-3.056853E-1,-4.6815768E-2,-1.9622055E-1,1.2813365E-1,-3.3013704E-1,4.2984748E-1,4.2297852E-1,-9.24758E-2,-4.027307E-1,8.198539E-1,1.1540209E-1,2.7006912E-1,-3.6745372E-1,1.47824E-1,2.1712783E-1,-3.5112172E-2,5.09074E-2,1.0362557E0,-2.0136213E-1,2.3505002E-2,-7.0752233E-1,-8.7470524E-2,-2.4822792E-2,3.409784E-1,1.024E-1,2.571531E-1,-7.323574E-1,-3.187855E-1,4.616763E-1,-2.0929064E-1,2.4424706E-1,-1.4321843E-1,5.705312E-1,1.9183229E-1,-7.372423E-1,-1.3749558E-1,7.962653E-1,-2.4611296E-2,-2.9230478E-1,1.9215913E-1,2.7549824E-1,-2.9277402E-1,1.1648095E-1,-3.101747E-1,-2.746708E-1,1.2242142E-1,-2.3890508E-2,-1.3070993E-1,2.893054E-1,7.12981E-3,-1.275603E-1,2.1839249E-1,1.7774141E-1,-1.7869377E-1,-2.733589E-1,-1.15256764E-1,2.2148971E-1,-5.1722247E-2,3.862319E-1,-2.3098255E-2,-2.3455562E-1,7.85476E-3,1.21929325E-1,-3.3541825E-2,3.5660663E-1,-1.6838783E-2,2.8314272E-2,1.4029098E-1],"categories":[],"categories_nodes":[],"categories_segments":[],"categories_sizes":[],"default_left":[0,0,0,0,0,0,0,0,0,0,0,0,0,0,0,0,0,0,0,0,0,0,0,0,0,0,0,0,0,0,0,0,0,0,0,0,0,0,0,0,0,0,0,0,0,0,0,0,0,0,0,0,0,0,0,0,0,0,0,0,0,0,0,0,0,0,0,0,0,0,0],"id":9,"left_children":[1,3,5,7,9,11,13,15,17,19,21,23,25,27,-1,29,31,-1,-1,33,35,37,39,41,43,-1,-1,45,-1,47,49,51,-1,-1,53,-1,55,57,59,61,63,-1,65,67,-1,69,-1,-1,-1,-1,-1,-1,-1,-1,-1,-1,-1,-1,-1,-1,-1,-1,-1,-1,-1,-1,-1,-1,-1,-1,-1],"loss_changes":[5.88401E0,4.381168E0,2.0902317E0,1.8722162E0,4.467898E0,5.046565E0,1.6389806E0,1.7251568E0,6.5207815E-1,4.1613855E0,2.3914847E0,1.797535E0,1.2736509E0,1.6055486E0,0E0,1.3148012E0,2.3114984E0,0E0,0E0,1.975534E0,4.6942124E0,3.2383876E0,3.4556592E0,2.5152855E0,3.7042968E0,0E0,0E0,2.8994296E0,0E0,2.3561373E0,2.1655555E0,1.3131196E0,0E0,0E0,2.9756148E0,0E0,1.80919E0,2.7404308E-1,2.8308046E0,2.4353495E0,3.403857E0,0E0,2.4432302E-1,2.593357E0,0E0,1.2942176E0,0E0,0E0,0E0,0E0,0E0,0E0,0E0,0E0,0E0,0E0,0E0,0E0,0E0,0E0,0E0,0E0,0E0,0E0,0E0,0E0,0E0,0E0,0E0,0E0,0E0],"parents":[2147483647,0,0,1,1,2,2,3,3,4,4,5,5,6,6,7,7,8,8,9,9,10,10,11,11,12,12,13,13,15,15,16,16,19,19,20,20,21,21,22,22,23,23,24,24,27,27,29,29,30,30,31,31,34,34,36,36,37,37,38,38,39,39,40,40,42,42,43,43,45,45],"right_children":[2,4,6,8,10,12,14,16,18,20,22,24,26,28,-1,30,32,-1,-1,34,36,38,40,42,44,-1,-1,46,-1,48,50,52,-1,-1,54,-1,56,58,60,62,64,-1,66,68,-1,70,-1,-1,-1,-1,-1,-1,-1,-1,-1,-1,-1,-1,-1,-1,-1,-1,-1,-1,-1,-1,-1,-1,-1,-1,-1],"split_conditions":[5.7E1,2.56E1,2.22E1,1.405E2,2.62E1,8.2E1,1.72E2,1E0,4.8E1,4.9E1,1.2E2,1.205E2,1.11E2,3.93E1,2.7006912E-1,2.1E1,2.46E1,2.1712783E-1,-3.5112172E-2,6.25E1,1.13E2,5.85E1,6.6E1,7.4E1,7.4E1,-2.4822792E-2,3.409784E-1,3.82E1,2.571531E-1,1.28E2,2.28E1,1.01E2,-2.0929064E-1,2.4424706E-1,8.25E1,5.705312E-1,2.59E1,2.98E1,8.9E1,1.225E2,2.9E1,-2.9230478E-1,1.95E1,7.05E1,-2.9277402E-1,3.4E1,-3.101747E-1,-2.746708E-1,1.2242142E-1,-2.3890508E-2,-1.3070993E-1,2.893054E-1,7.12981E-3,-1.275603E-1,2.1839249E-1,1.7774141E-1,-1.7869377E-1,-2.733589E-1,-1.15256764E-1,2.2148971E-1,-5.1722247E-2,3.862319E-1,-2.3098255E-2,-2.3455562E-1,7.85476E-3,1.21929325E-1,-3.3541825E-2,3.5660663E-1,-1.6838783E-2,2.8314272E-2,1.4029098E-1],"split_indices":[1,4,4,2,4,1,2,5,1,1,2,2,2,4,0,1,4,0,0,3,2,3,3,1,1,0,0,4,0,2,4,2,0,0,3,0,4,4,2,2,1,0,4,3,0,4,0,0,0,0,0,0,0,0,0,0,0,0,0,0,0,0,0,0,0,0,0,0,0,0,0],"split_type":[0,0,0,0,0,0,0,0,0,0,0,0,0,0,0,0,0,0,0,0,0,0,0,0,0,0,0,0,0,0,0,0,0,0,0,0,0,0,0,0,0,0,0,0,0,0,0,0,0,0,0,0,0,0,0,0,0,0,0,0,0,0,0,0,0,0,0,0,0,0,0],"sum_hessian":[4.9844843E2,3.0067026E2,1.9777818E2,9.5208115E1,2.0546214E2,2.1477205E1,1.7630096E2,9.2678314E1,2.5297987E0,1.746826E1,1.8799388E2,1.835111E1,3.1260962E0,1.7457181E2,1.7291547E0,8.618097E1,6.497348E0,1.4351158E0,1.094683E0,1.1546242E1,5.922018E0,9.658281E1,9.1411064E1,8.697841E0,9.653269E0,1.0039555E0,2.122141E0,1.7268301E2,1.8888011E0,8.488457E0,7.769251E1,5.069411E0,1.4279374E0,1.6935812E0,9.85266E0,2.306132E0,3.6158862E0,9.162262E0,8.742055E1,4.446726E0,8.696434E1,6.644289E0,2.0535517E0,7.3431654E0,2.3101037E0,1.7145587E2,1.2271473E0,7.483405E0,1.0050516E0,2.6062435E1,5.1630074E1,1.8004811E0,3.2689295E0,7.830171E0,2.0224893E0,2.5607224E0,1.0551639E0,5.0789104E0,4.083352E0,2.5789108E0,8.484164E1,2.542421E0,1.9043045E0,4.561926E0,8.240241E1,1.0067638E0,1.0467879E0,1.2677631E0,6.0754023E0,1.624978E2,8.958058E0],"tree_param":{"num_deleted":"0","num_feature":"8","num_nodes":"71","size_leaf_vector":"1"}},{"base_weights":[-3.089008E-2,-9.180233E-2,8.069683E-2,-3.6624706E-1,-6.461319E-2,6.1926823E-2,6.7756474E-1,-4.3133307E-1,1.0881506E-1,-3.9350502E-2,-3.742968E-1,1.404358E-1,-7.6180674E-2,2.6539898E-1,-2.4561549E-2,-4.9491197E-1,2.1453765E-1,-1.6147359E-1,3.0493993E-2,-6.319156E-1,4.172974E-1,7.590029E-2,6.6643167E-1,2.4651374E-1,-2.189855E-1,-7.543029E-1,-1.0026946E-1,1.2455126E-1,-2.5734585E-2,-1.8359672E-1,2.4350315E-1,6.222053E-1,-4.8014395E-2,-7.631949E-1,1.8160588E-1,8.9806014E-1,-1.6871479E-1,4.9626592E-1,-2.4606045E-2,1.0453714E0,9.044553E-2,-2.791412E-1,4.9885568E-1,-5.244503E-1,-5.004035E-2,-2.6079807E-1,2.715375E-2,7.08993E-2,-2.5707412E-1,-4.5409992E-2,-2.6113212E-1,-2.5021236E-2,3.028404E-1,-8.77996E-2,5.7327356E-3,1.8409496E-2,-2.583267E-1,6.1658427E-2,3.412584E-1,2.4759029E-1,-2.6972446E-1,7.366465E-2,2.9007486E-1,-1.3924225E-1,2.7586525E-2,3.6442262E-1,1.387697E-1,2.1510088E-1,-1.3778187E-1,4.722598E-2,-2.4719742E-1,2.8751675E-2,3.0482376E-1,9.8363236E-2,-2.1289665E-1,1.9315694E-1,-4.4630826E-2],"categories":[],"categories_nodes":[],"categories_segments":[],"categories_sizes":[],"default_left":[0,0,0,0,0,0,0,0,0,0,0,0,0,0,0,0,0,0,0,0,0,0,0,0,0,0,0,0,0,0,0,0,0,0,0,0,0,0,0,0,0,0,0,0,0,0,0,0,0,0,0,0,0,0,0,0,0,0,0,0,0,0,0,0,0,0,0,0,0,0,0,0,0,0,0,0,0],"id":10,"left_children":[1,3,5,7,9,11,13,15,-1,17,19,21,23,-1,-1,25,27,29,31,33,35,37,39,41,43,45,47,-1,-1,49,-1,51,53,55,-1,57,59,61,63,65,67,69,71,73,75,-1,-1,-1,-1,-1,-1,-1,-1,-1,-1,-1,-1,-1,-1,-1,-1,-1,-1,-1,-1,-1,-1,-1,-1,-1,-1,-1,-1,-1,-1,-1,-1],"loss_changes":[3.3278487E0,2.3378847E0,1.8965857E0,1.4997795E0,2.2475524E0,1.84159E0,8.863456E-1,1.1922817E0,0E0,2.2949119E0,4.6874166E0,3.6158972E0,2.9041128E0,0E0,0E0,2.4202003E0,2.2046803E-1,2.2554162E0,8.003075E0,3.1849194E0,1.8217758E0,4.124588E0,2.4537559E0,2.7184262E0,2.2137206E0,1.4933777E0,2.9589858E0,0E0,0E0,2.0040243E0,0E0,5.5976048E0,2.5092425E0,1.3119116E0,0E0,3.325255E-1,3.2929082E0,1.9843898E0,4.116025E0,1.23894215E-1,2.3021247E0,1.7823446E0,2.7159238E0,2.6560063E0,2.0861347E0,0E0,0E0,0E0,0E0,0E0,0E0,0E0,0E0,0E0,0E0,0E0,0E0,0E0,0E0,0E0,0E0,0E0,0E0,0E0,0E0,0E0,0E0,0E0,0E0,0E0,0E0,0E0,0E0,0E0,0E0,0E0,0E0],"parents":[2147483647,0,0,1,1,2,2,3,3,4,4,5,5,6,6,7,7,9,9,10,10,11,11,12,12,15,15,16,16,17,17,18,18,19,19,20,20,21,21,22,22,23,23,24,24,25,25,26,26,29,29,31,31,32,32,33,33,35,35,36,36,37,37,38,38,39,39,40,40,41,41,42,42,43,43,44,44],"right_children":[2,4,6,8,10,12,14,16,-1,18,20,22,24,-1,-1,26,28,30,32,34,36,38,40,42,44,46,48,-1,-1,50,-1,52,54,56,-1,58,60,62,64,66,68,70,72,74,76,-1,-1,-1,-1,-1,-1,-1,-1,-1,-1,-1,-1,-1,-1,-1,-1,-1,-1,-1,-1,-1,-1,-1,-1,-1,-1,-1,-1,-1,-1,-1,-1],"split_conditions":[1.25E2,2.6E1,1.61E2,1.21E2,1.225E2,1E0,1E0,1E0,1.0881506E-1,2.57E1,8.35E1,9.3E1,1.285E2,2.6539898E-1,-2.4561549E-2,2.64E1,2.36E1,8.8E1,2.64E1,7.4E1,1.23E2,7.05E1,1E0,4.6E1,1.31E2,1.2E2,3.09E1,1.2455126E-1,-2.5734585E-2,8.45E1,2.4350315E-1,4.9E1,2.78E1,2.27E1,1.8160588E-1,1E0,4.2E1,2.87E1,7.9E1,3.05E1,9.8E1,3.7E1,1.265E2,3.4E1,7.55E1,-2.6079807E-1,2.715375E-2,7.08993E-2,-2.5707412E-1,-4.5409992E-2,-2.6113212E-1,-2.5021236E-2,3.028404E-1,-8.77996E-2,5.7327356E-3,1.8409496E-2,-2.583267E-1,6.1658427E-2,3.412584E-1,2.4759029E-1,-2.6972446E-1,7.366465E-2,2.9007486E-1,-1.3924225E-1,2.7586525E-2,3.6442262E-1,1.387697E-1,2.1510088E-1,-1.3778187E-1,4.722598E-2,-2.4719742E-1,2.8751675E-2,3.0482376E-1,9.8363236E-2,-2.1289665E-1,1.9315694E-1,-4.4630826E-2],"split_indices":[2,1,2,2,2,7,6,6,0,4,3,3,2,0,0,4,4,1,4,1,2,3,0,1,2,2,4,0,0,3,0,1,4,4,0,0,1,4,3,4,3,1,2,1,3,0,0,0,0,0,0,0,0,0,0,0,0,0,0,0,0,0,0,0,0,0,0,0,0,0,0,0,0,0,0,0,0],"split_type":[0,0,0,0,0,0,0,0,0,0,0,0,0,0,0,0,0,0,0,0,0,0,0,0,0,0,0,0,0,0,0,0,0,0,0,0,0,0,0,0,0,0,0,0,0,0,0,0,0,0,0,0,0,0,0,0,0,0,0,0,0,0,0,0,0,0,0,0,0,0,0,0,0,0,0,0,0],"sum_hessian":[4.8751492E2,3.154802E2,1.7203473E2,2.731317E1,2.8816702E2,1.6785971E2,4.1750154E0,2.5449215E1,1.863956E0,2.674746E2,2.069239E1,1.07011055E2,6.084866E1,3.1508768E0,1.0241388E0,2.3381308E1,2.0679057E0,9.683927E1,1.7063535E2,1.5763866E1,4.9285235E0,9.6335724E1,1.067533E1,1.8444227E1,4.2404434E1,1.3558326E1,9.822983E0,1.0104371E0,1.0574685E0,9.548001E1,1.3592569E0,1.9176712E1,1.5145865E2,1.4598108E1,1.165758E0,2.4148736E0,2.5136497E0,1.782893E1,7.850679E1,5.9475365E0,4.727793E0,5.947907E0,1.2496321E1,1.4351551E1,2.8052883E1,1.1908003E1,1.6503226E0,7.2745075E0,2.5484757E0,9.236612E1,3.113891E0,7.0733647E0,1.2103347E1,3.1884892E1,1.1957375E2,1.5888023E0,1.3009306E1,1.0979403E0,1.3169334E0,1.0096089E0,1.5040408E0,1.2625175E1,5.203755E0,1.5830472E1,6.267632E1,3.7681613E0,2.1793752E0,2.0672622E0,2.660531E0,3.6968684E0,2.2510383E0,7.6897883E0,4.8065324E0,2.4243176E0,1.1927234E1,2.8065033E0,2.524638E1],"tree_param":{"num_deleted":"0","num_feature":"8","num_nodes":"77","size_leaf_vector":"1"}},{"base_weights":[-2.2135133E-2,-4.6680737E-2,1.9057527E-1,-1.0911311E-1,5.0528865E-2,4.7426388E-2,6.553906E-1,-3.762638E-1,-6.702755E-2,-3.8015038E-2,1.7425977E-1,2.5457215E-1,-5.725231E-1,7.7316564E-1,-2.764818E-2,-5.7476664E-1,-6.0707517E-2,5.680038E-1,-8.821863E-2,7.299946E-2,-5.5730426E-1,9.5848995E-1,7.9781044E-4,-9.428061E-2,4.495102E-1,-7.5935173E-1,1.3672337E-1,9.8436236E-1,3.7522194E-1,-1.309013E-1,-7.502789E-1,6.159327E-1,-2.919745E-1,-2.6950365E-1,1.6017271E0,4.7981918E-1,-1.1551463E-1,-2.8997874E-1,2.380495E-1,-7.3896307E-1,2.9204103E-1,6.4610386E-1,3.107729E-1,-9.077476E-2,2.8726962E-1,2.5222385E-1,-3.6339062E-1,8.3712417E-1,1.632759E-1,7.334544E-3,-8.7330407E-1,5.0878304E-1,4.2049128E-1,-1.562975E-1,7.764045E-1,-2.4845637E-1,1.9808662E-1,-1.644651E-2,-2.3964678E-1,3.3049867E-1,-6.9857195E-2,1.346446E-1,-1.4629285E-1,1.05219714E-1,-2.2511257E-1,5.862465E-1,1.2062935E-1,2.3252754E-3,3.091396E-1,-5.0317846E-2,2.4535643E-2,3.881709E-3,-1.4882971E-1,2.57868E-2,1.487065E-1,-8.132757E-2,-2.3869397E-1,-8.056091E-2,1.9236927E-1,-2.2046736E-1,1.6018474E-1,1.2252359E-1,-4.5581818E-2,-2.9173654E-1,5.88503E-4,5.270754E-2,4.619479E-1,-1.3241707E-1,1.974502E-1,-2.8544897E-1,-7.205904E-2,5.689566E-3,2.739641E-1,2.977336E-1,4.5548573E-2],"categories":[],"categories_nodes":[],"categories_segments":[],"categories_sizes":[],"default_left":[0,0,0,0,0,0,0,0,0,0,0,0,0,0,0,0,0,0,0,0,0,0,0,0,0,0,0,0,0,0,0,0,0,0,0,0,0,0,0,0,0,0,0,0,0,0,0,0,0,0,0,0,0,0,0,0,0,0,0,0,0,0,0,0,0,0,0,0,0,0,0,0,0,0,0,0,0,0,0,0,0,0,0,0,0,0,0,0,0,0,0,0,0,0,0],"id":11,"left_children":[1,3,5,7,9,11,13,15,17,19,21,23,25,27,-1,29,31,33,35,37,39,41,43,45,47,49,-1,51,53,55,57,59,61,63,65,67,69,71,73,75,77,-1,79,81,-1,-1,83,85,87,-1,89,91,-1,-1,93,-1,-1,-1,-1,-1,-1,-1,-1,-1,-1,-1,-1,-1,-1,-1,-1,-1,-1,-1,-1,-1,-1,-1,-1,-1,-1,-1,-1,-1,-1,-1,-1,-1,-1,-1,-1,-1,-1,-1,-1],"loss_changes":[2.5066173E0,2.613375E0,3.2751193E0,2.9201655E0,1.8551607E0,5.1627936E0,1.0944543E0,2.1847887E0,3.1120405E0,5.7577047E0,9.597722E0,2.0808384E0,2.2848878E0,4.8338842E-1,0E0,1.5871964E0,2.4960756E0,6.9093056E0,3.4828782E0,5.0168176E0,2.9286308E0,9.223674E0,5.2368693E0,3.2173629E0,2.0160625E0,8.176522E-1,0E0,4.800334E-1,2.2503521E0,4.597258E0,4.7248554E-1,1.9435732E0,1.9161785E0,1.7512612E0,6.9093037E-1,2.6770287E0,2.1947484E0,1.6463962E0,2.2035542E0,1.7595768E-1,9.1891515E-1,0E0,2.5992136E0,1.7278845E0,0E0,0E0,2.1568508E0,3.447629E0,4.0021667E0,0E0,1.5813684E-1,8.50302E-1,0E0,0E0,3.820269E-1,0E0,0E0,0E0,0E0,0E0,0E0,0E0,0E0,0E0,0E0,0E0,0E0,0E0,0E0,0E0,0E0,0E0,0E0,0E0,0E0,0E0,0E0,0E0,0E0,0E0,0E0,0E0,0E0,0E0,0E0,0E0,0E0,0E0,0E0,0E0,0E0,0E0,0E0,0E0,0E0],"parents":[2147483647,0,0,1,1,2,2,3,3,4,4,5,5,6,6,7,7,8,8,9,9,10,10,11,11,12,12,13,13,15,15,16,16,17,17,18,18,19,19,20,20,21,21,22,22,23,23,24,24,25,25,27,27,28,28,29,29,30,30,31,31,32,32,33,33,34,34,35,35,36,36,37,37,38,38,39,39,40,40,42,42,43,43,46,46,47,47,48,48,50,50,51,51,54,54],"right_children":[2,4,6,8,10,12,14,16,18,20,22,24,26,28,-1,30,32,34,36,38,40,42,44,46,48,50,-1,52,54,56,58,60,62,64,66,68,70,72,74,76,78,-1,80,82,-1,-1,84,86,88,-1,90,92,-1,-1,94,-1,-1,-1,-1,-1,-1,-1,-1,-1,-1,-1,-1,-1,-1,-1,-1,-1,-1,-1,-1,-1,-1,-1,-1,-1,-1,-1,-1,-1,-1,-1,-1,-1,-1,-1,-1,-1,-1,-1,-1],"split_conditions":[1E0,5.7E1,8.15E1,6.1E1,2.78E1,7.95E1,3.34E1,1.01E2,6.3E1,2.67E1,2.85E1,6.6E1,3.33E1,5.9E1,-2.764818E-2,8.65E1,1.06E2,1.1E2,9.65E1,1.135E2,8.55E1,6.85E1,1.405E2,9.05E1,2.5E1,2.39E1,1.3672337E-1,5.4E1,6.5E1,5.2E1,2.05E1,4E1,5.2E1,1E0,6.15E1,2.97E1,3.14E1,1.05E2,2.51E1,2.69E1,2.71E1,6.4610386E-1,5.9E1,6.15E1,2.8726962E-1,2.5222385E-1,1.04E2,2.35E1,2.81E1,7.334544E-3,1.36E2,8.9E1,4.2049128E-1,-1.562975E-1,1E0,-2.4845637E-1,1.9808662E-1,-1.644651E-2,-2.3964678E-1,3.3049867E-1,-6.9857195E-2,1.346446E-1,-1.4629285E-1,1.05219714E-1,-2.2511257E-1,5.862465E-1,1.2062935E-1,2.3252754E-3,3.091396E-1,-5.0317846E-2,2.4535643E-2,3.881709E-3,-1.4882971E-1,2.57868E-2,1.487065E-1,-8.132757E-2,-2.3869397E-1,-8.056091E-2,1.9236927E-1,-2.2046736E-1,1.6018474E-1,1.2252359E-1,-4.5581818E-2,-2.9173654E-1,5.88503E-4,5.270754E-2,4.619479E-1,-1.3241707E-1,1.974502E-1,-2.8544897E-1,-7.205904E-2,5.689566E-3,2.739641E-1,2.977336E-1,4.5548573E-2],"split_indices":[5,1,3,3,4,3,4,2,3,4,4,3,4,1,0,2,2,2,2,2,3,3,2,2,4,4,0,1,1,3,4,1,3,7,3,4,4,2,4,4,4,0,1,3,0,0,2,4,4,0,2,3,0,0,7,0,0,0,0,0,0,0,0,0,0,0,0,0,0,0,0,0,0,0,0,0,0,0,0,0,0,0,0,0,0,0,0,0,0,0,0,0,0,0,0],"split_type":[0,0,0,0,0,0,0,0,0,0,0,0,0,0,0,0,0,0,0,0,0,0,0,0,0,0,0,0,0,0,0,0,0,0,0,0,0,0,0,0,0,0,0,0,0,0,0,0,0,0,0,0,0,0,0,0,0,0,0,0,0,0,0,0,0,0,0,0,0,0,0,0,0,0,0,0,0,0,0,0,0,0,0,0,0,0,0,0,0,0,0,0,0,0,0],"sum_hessian":[4.7738928E2,4.287002E2,4.868909E1,2.6097067E2,1.6772954E2,3.80675E1,1.0621591E1,3.4436195E1,2.2653447E2,9.817012E1,6.955942E1,2.8975266E1,9.092235E0,9.14634E0,1.4752501E0,2.063449E1,1.3801707E1,6.4820986E0,2.2005237E2,8.158761E1,1.6582508E1,1.1779239E1,5.7780174E1,1.0572151E1,1.8403114E1,7.91556E0,1.1766751E0,5.01249E0,4.133851E0,6.341882E0,1.4292607E1,3.0919611E0,1.0709746E1,3.9893079E0,2.4927905E0,9.329263E0,2.107231E2,2.5265902E1,5.632171E1,1.3767799E1,2.8147087E0,3.3228223E0,8.456416E0,5.3559135E1,4.2210407E0,1.8880211E0,8.684131E0,6.9996653E0,1.1403449E1,1.1044252E0,6.8111343E0,3.3797736E0,1.6327162E0,1.1859291E0,2.947922E0,3.34613E0,2.9957523E0,1.0714781E0,1.3221129E1,1.7770842E0,1.3148768E0,1.9674248E0,8.742322E0,1.8603851E0,2.128923E0,1.4406035E0,1.052187E0,5.5690227E0,3.7602398E0,1.667468E2,4.3976307E1,1.0610201E1,1.4655702E1,3.625355E1,2.0068155E1,2.1126153E0,1.1655184E1,1.1690037E0,1.6457051E0,1.0841051E0,7.3723116E0,5.2265024E0,4.8332634E1,2.6330254E0,6.051105E0,4.2496347E0,2.7500305E0,5.181148E0,6.222301E0,5.614778E0,1.1963567E0,2.0019934E0,1.3777801E0,1.7526793E0,1.1952426E0],"tree_param":{"num_deleted":"0","num_feature":"8","num_nodes":"95","size_leaf_vector":"1"}},{"base_weights":[-1.3462204E-2,-2.7315935E-1,4.446025E-3,-3.8305455E-1,6.421702E-1,6.78401E-1,-4.898427E-3,-1.0667619E-1,-5.2140176E-1,5.143066E-2,2.7055863E-1,1.3103514E0,-2.7103797E-1,-2.654449E-1,1.8347424E-2,-3.4429747E-1,4.789935E-1,-6.5097857E-1,8.4687114E-2,6.0857403E-1,-4.0255487E-2,-2.2924526E-2,-9.7476825E-2,-1.19776554E-1,-6.3501716E-1,-1.5909587E-1,4.239272E-2,-6.2918836E-1,6.07295E-2,2.7519104E-1,-7.358652E-2,-7.244915E-1,7.6253195E-3,-5.9498142E-2,1.0636111E-1,-6.1878055E-1,-1.4717173E-2,6.103006E-4,-7.438814E-1,-3.5174152E-1,1.732387E-1,3.337172E-1,1.7041644E-2,-2.7894032E-1,-1.7819423E-2,-1.3556059E-1,2.3667796E-1,-1.2653258E-1,-2.9460302E-1,-2.2290494E-1,-3.801828E-2,2.2876905E-2,-1.6736247E-1,-2.5876504E-1,-8.889189E-2,-1.34408E-1,1.2893301E-1,-4.2346124E-2,1.4931574E-1,1.27538E-1,-1.3073595E-1,-2.825469E-2,2.1456264E-2],"categories":[],"categories_nodes":[],"categories_segments":[],"categories_sizes":[],"default_left":[0,0,0,0,0,0,0,0,0,0,0,0,0,0,0,0,0,0,0,0,0,0,0,0,0,0,0,0,0,0,0,0,0,0,0,0,0,0,0,0,0,0,0,0,0,0,0,0,0,0,0,0,0,0,0,0,0,0,0,0,0,0,0],"id":12,"left_children":[1,3,5,7,9,11,13,15,17,-1,-1,19,21,23,25,27,29,31,33,-1,-1,-1,-1,35,37,39,41,43,45,-1,-1,47,-1,-1,-1,49,51,-1,53,55,57,59,61,-1,-1,-1,-1,-1,-1,-1,-1,-1,-1,-1,-1,-1,-1,-1,-1,-1,-1,-1,-1],"loss_changes":[2.1779046E0,3.2846892E0,2.7669265E0,9.9958086E-1,2.8690946E-1,3.9601307E0,2.632333E0,1.6210568E0,1.4792633E0,0E0,0E0,4.1926117E0,9.040818E-3,1.8404217E0,1.7100753E0,9.6421283E-1,1.3164718E0,7.670007E-1,3.818237E-1,0E0,0E0,0E0,0E0,1.3941596E0,6.833904E-1,3.1245732E0,2.5966647E0,7.6682115E-1,1.9338697E0,0E0,0E0,6.470094E-1,0E0,0E0,0E0,1.8893504E-1,1.1857644E0,0E0,1.9056463E-1,2.4968517E0,1.9299514E0,2.1656377E0,1.9773154E0,0E0,0E0,0E0,0E0,0E0,0E0,0E0,0E0,0E0,0E0,0E0,0E0,0E0,0E0,0E0,0E0,0E0,0E0,0E0,0E0],"parents":[2147483647,0,0,1,1,2,2,3,3,4,4,5,5,6,6,7,7,8,8,11,11,12,12,13,13,14,14,15,15,16,16,17,17,18,18,23,23,24,24,25,25,26,26,27,27,28,28,31,31,35,35,36,36,38,38,39,39,40,40,41,41,42,42],"right_children":[2,4,6,8,10,12,14,16,18,-1,-1,20,22,24,26,28,30,32,34,-1,-1,-1,-1,36,38,40,42,44,46,-1,-1,48,-1,-1,-1,50,52,-1,54,56,58,60,62,-1,-1,-1,-1,-1,-1,-1,-1,-1,-1,-1,-1,-1,-1,-1,-1,-1,-1,-1,-1],"split_conditions":[2.16E1,8.2E1,2.19E1,1.98E1,2.05E1,5E1,2.9E1,1.94E1,9E1,5.143066E-2,2.7055863E-1,1E0,7.55E1,1E0,1.01E2,1E0,1E0,1E0,2.11E1,6.0857403E-1,-4.0255487E-2,-2.2924526E-2,-9.7476825E-2,2.34E1,6.15E1,2.94E1,6.15E1,1.87E1,5.6E1,2.7519104E-1,-7.358652E-2,7.05E1,7.6253195E-3,-5.9498142E-2,1.0636111E-1,1.205E2,3.34E1,6.103006E-4,1.25E2,1E0,1E0,3.27E1,7.5E1,-2.7894032E-1,-1.7819423E-2,-1.3556059E-1,2.3667796E-1,-1.2653258E-1,-2.9460302E-1,-2.2290494E-1,-3.801828E-2,2.2876905E-2,-1.6736247E-1,-2.5876504E-1,-8.889189E-2,-1.34408E-1,1.2893301E-1,-4.2346124E-2,1.4931574E-1,1.27538E-1,-1.3073595E-1,-2.825469E-2,2.1456264E-2],"split_indices":[4,1,4,4,4,1,1,4,3,0,0,7,3,0,2,7,0,5,4,0,0,0,0,4,3,4,3,4,1,0,0,3,0,0,0,2,4,0,2,6,7,4,3,0,0,0,0,0,0,0,0,0,0,0,0,0,0,0,0,0,0,0,0],"split_type":[0,0,0,0,0,0,0,0,0,0,0,0,0,0,0,0,0,0,0,0,0,0,0,0,0,0,0,0,0,0,0,0,0,0,0,0,0,0,0,0,0,0,0,0,0,0,0,0,0,0,0,0,0,0,0,0,0,0,0,0,0,0,0],"sum_hessian":[4.670334E2,2.920869E1,4.3782468E2,2.659695E1,2.61174E0,5.00831E0,4.3281638E2,9.463215E0,1.7133736E1,1.5188043E0,1.0929358E0,2.7786782E0,2.2296317E0,3.4599194E1,3.982172E2,7.0250864E0,2.4381285E0,1.4054859E1,3.0788767E0,1.5858672E0,1.192811E0,1.007788E0,1.2218436E0,2.576709E1,8.832104E0,4.685228E1,3.513649E2,3.7992759E0,3.2258108E0,1.3529004E0,1.0852281E0,1.261294E1,1.4419196E0,1.6321502E0,1.4467264E0,3.6309988E0,2.2136091E1,1.4322399E0,7.399864E0,2.9622498E1,1.7229784E1,2.7154331E1,3.2421057E2,2.0734992E0,1.7257768E0,2.1158643E0,1.1099464E0,7.010205E0,5.6027346E0,2.4918191E0,1.1391796E0,1.9696695E1,2.4393954E0,5.1162057E0,2.2836583E0,2.6753159E1,2.8693383E0,9.037877E0,8.191907E0,2.4671171E1,2.4831605E0,1.0635306E2,2.1785751E2],"tree_param":{"num_deleted":"0","num_feature":"8","num_nodes":"63","size_leaf_vector":"1"}},{"base_weights":[-1.2747475E-2,-2.273573E-1,-7.293828E-3,-1.1632582E-2,2.4100824E-1,-3.0208323E-2,1.4698564E-1,-7.813685E-2,3.6798846E-2,3.458188E-2,5.232045E-1,-5.872909E-1,-6.0732644E-2,1.576948E-1,-1.642621E-1,1.9348198E-1,-4.7148898E-1,6.2646896E-1,-2.6539398E-2,-3.4626197E-2,-2.545277E-1,-4.143388E-2,1.2132305E-2,3.4616176E-2,2.0004494E-1,-8.913302E-2,9.0173654E-2,1.3051804E-2,1.7249963E-1,-1.9131924E-1,1.09269276E-1,2.4023713E-1,8.1033036E-2],"categories":[],"categories_nodes":[],"categories_segments":[],"categories_sizes":[],"default_left":[0,0,0,0,0,0,0,0,0,0,0,0,0,0,0,0,0,0,0,0,0,0,0,0,0,0,0,0,0,0,0,0,0],"id":13,"left_children":[1,-1,3,5,-1,7,9,11,13,15,17,19,21,23,25,27,29,31,-1,-1,-1,-1,-1,-1,-1,-1,-1,-1,-1,-1,-1,-1,-1],"loss_changes":[1.8809198E0,0E0,1.6338514E0,1.3609792E0,0E0,1.3291268E0,2.030157E0,2.1006088E0,4.228331E0,3.176246E0,7.547288E-1,8.697207E-1,1.8392819E0,2.2596219E0,4.1285334E0,1.6861315E0,1.5463405E0,3.7980962E-1,0E0,0E0,0E0,0E0,0E0,0E0,0E0,0E0,0E0,0E0,0E0,0E0,0E0,0E0,0E0],"parents":[2147483647,0,0,2,2,3,3,5,5,6,6,7,7,8,8,9,9,10,10,11,11,12,12,13,13,14,14,15,15,16,16,17,17],"right_children":[2,-1,4,6,-1,8,10,12,14,16,18,20,22,24,26,28,30,32,-1,-1,-1,-1,-1,-1,-1,-1,-1,-1,-1,-1,-1,-1,-1],"split_conditions":[4.2E1,-2.273573E-1,1.72E2,1E0,2.4100824E-1,8E1,8.15E1,2.1E1,1E0,7.95E1,3.34E1,6.6E1,1E0,7.9E1,6.4E1,7.3E1,3.33E1,5.9E1,-2.6539398E-2,-3.4626197E-2,-2.545277E-1,-4.143388E-2,1.2132305E-2,3.4616176E-2,2.0004494E-1,-8.913302E-2,9.0173654E-2,1.3051804E-2,1.7249963E-1,-1.9131924E-1,1.09269276E-1,2.4023713E-1,8.1033036E-2],"split_indices":[3,0,2,5,0,3,3,1,7,3,4,3,7,1,1,3,4,1,0,0,0,0,0,0,0,0,0,0,0,0,0,0,0],"split_type":[0,0,0,0,0,0,0,0,0,0,0,0,0,0,0,0,0,0,0,0,0,0,0,0,0,0,0,0,0,0,0,0,0],"sum_hessian":[4.6323422E2,2.3634393E0,4.608708E2,4.5939767E2,1.4731201E0,4.119624E2,4.7435265E1,2.4007602E2,1.7188638E2,3.736389E1,1.0071373E1,6.8528905E0,2.3322313E2,1.0747713E2,6.440925E1,2.8905573E1,8.45832E0,8.595971E0,1.4754015E0,2.9550729E0,3.8978176E0,1.3194388E2,1.0127925E2,1.0036364E2,7.1134877E0,5.0373676E1,1.4035574E1,2.1548712E1,7.356861E0,7.252548E0,1.2057718E0,4.934833E0,3.6611383E0],"tree_param":{"num_deleted":"0","num_feature":"8","num_nodes":"33","size_leaf_vector":"1"}},{"base_weights":[-9.148773E-3,-5.81843E-1,-3.7266428E-3,-2.2106768E-1,-1.2174862E-2,7.524285E-1,-9.85444E-3,-7.3657386E-2,4.7925472E-1,-1.3556309E-2,2.1966305E-1,2.7417786E-2,-7.522014E-2,7.6686977E-3,4.2756137E-1,-5.198728E-2,-6.4755595E-1,-7.3736156E-3,6.9472395E-2,2.5131804E-1,3.2169364E-2,-2.6657281E-2,1.5352066E-1,-3.2205024E-1,1.3944742E-1],"categories":[],"categories_nodes":[],"categories_segments":[],"categories_sizes":[],"default_left":[0,0,0,0,0,0,0,0,0,0,0,0,0,0,0,0,0,0,0,0,0,0,0,0,0],"id":14,"left_children":[1,3,5,-1,-1,7,9,-1,-1,11,-1,13,15,17,19,21,23,-1,-1,-1,-1,-1,-1,-1,-1],"loss_changes":[1.4210845E0,3.3031464E-1,2.1159153E0,0E0,0E0,3.4881537E0,1.2526215E0,0E0,0E0,1.1418574E0,0E0,2.144281E0,2.3645372E0,1.8829528E0,1.5871458E0,3.6704855E0,3.7912006E0,0E0,0E0,0E0,0E0,0E0,0E0,0E0,0E0],"parents":[2147483647,0,0,1,1,2,2,5,5,6,6,9,9,11,11,12,12,13,13,14,14,15,15,16,16],"right_children":[2,4,6,-1,-1,8,10,-1,-1,12,-1,14,16,18,20,22,24,-1,-1,-1,-1,-1,-1,-1,-1],"split_conditions":[8.15E1,5.25E1,8.5E1,-2.2106768E-1,-1.2174862E-2,2.8E1,1.72E2,-7.3657386E-2,4.7925472E-1,1E0,2.1966305E-1,9.3E1,7.7E1,1E0,2.71E1,7.2E1,2.93E1,-7.3736156E-3,6.9472395E-2,2.5131804E-1,3.2169364E-2,-2.6657281E-2,1.5352066E-1,-3.2205024E-1,1.3944742E-1],"split_indices":[2,3,2,0,0,4,2,0,0,7,0,3,1,5,4,1,4,0,0,0,0,0,0,0,0],"split_type":[0,0,0,0,0,0,0,0,0,0,0,0,0,0,0,0,0,0,0,0,0,0,0,0,0],"sum_hessian":[4.5734164E2,3.2923214E0,4.5404932E2,2.2782552E0,1.0140662E0,2.670952E0,4.5137836E2,1.5500203E0,1.1209317E0,4.5011465E2,1.2637141E0,2.70758E2,1.7935666E2,2.5899448E2,1.1763508E1,1.7340831E2,5.9483385E0,2.2716754E2,3.1826935E1,4.4501433E0,7.3133645E0,1.6355347E2,9.85485E0,4.326586E0,1.621753E0],"tree_param":{"num_deleted":"0","num_feature":"8","num_nodes":"25","size_leaf_vector":"1"}},{"base_weights":[-5.4290034E-3,-2.145129E-1,7.814775E-3,-3.1387034E-1,5.321981E-1,4.7489658E-1,3.9546133E-4,-2.1871573E-1,-2.6599553E-1,3.711491E-2,2.0590715E-1,-1.8661012E-1,8.698261E-1,-1.9000196E-1,1.6201293E-2,-3.0700186E-1,1.7403507E-1,4.38832E-1,-4.4393323E-2,-6.5916285E-2,-5.493199E-1,2.2102002E-2,-3.6483672E-1,2.2678685E-1,-4.0487942E-1,-5.329176E-1,1.9050073E-2,3.3934396E-3,-6.653286E-1,1.0991565E-2,3.6980423E-1,4.6274316E-2,-3.4152043E-1,2.5356376E-1,-1.7592773E-1,-2.2491862E-1,-5.2669395E-2,-1.4263307E-2,-2.092083E-1,1.2570076E-1,-3.1342413E-2,-2.2957785E-1,-2.6487354E-2,-1.417493E-1,5.115911E-3,1.5861002E-1,-9.80236E-2,-1.4994389E-1,2.3111087E-1],"categories":[],"categories_nodes":[],"categories_segments":[],"categories_sizes":[],"default_left":[0,0,0,0,0,0,0,0,0,0,0,0,0,0,0,0,0,0,0,0,0,0,0,0,0,0,0,0,0,0,0,0,0,0,0,0,0,0,0,0,0,0,0,0,0,0,0,0,0],"id":15,"left_children":[1,3,5,7,9,11,13,15,-1,-1,-1,-1,17,19,21,23,-1,-1,-1,25,27,29,31,33,35,37,39,-1,41,43,45,47,-1,-1,-1,-1,-1,-1,-1,-1,-1,-1,-1,-1,-1,-1,-1,-1,-1],"loss_changes":[1.259406E0,2.177013E0,1.4834177E0,1.1435344E0,1.3879001E-1,3.4406247E0,1.2743138E0,1.7558193E0,0E0,0E0,0E0,0E0,3.438151E0,1.4109712E0,8.871072E-1,1.1784549E0,0E0,0E0,0E0,1.01256E0,5.405359E-1,1.4868917E0,1.9669199E0,2.4387615E0,1.2866337E0,2.7998698E-1,1.147431E0,0E0,3.2495093E-1,1.1071295E0,1.4920381E0,2.3191745E0,0E0,0E0,0E0,0E0,0E0,0E0,0E0,0E0,0E0,0E0,0E0,0E0,0E0,0E0,0E0,0E0,0E0],"parents":[2147483647,0,0,1,1,2,2,3,3,4,4,5,5,6,6,7,7,12,12,13,13,14,14,15,15,19,19,20,20,21,21,22,22,23,23,24,24,25,25,26,26,28,28,29,29,30,30,31,31],"right_children":[2,4,6,8,10,12,14,16,-1,-1,-1,-1,18,20,22,24,-1,-1,-1,26,28,30,32,34,36,38,40,-1,42,44,46,48,-1,-1,-1,-1,-1,-1,-1,-1,-1,-1,-1,-1,-1,-1,-1,-1,-1],"split_conditions":[2.16E1,8.2E1,2.19E1,7.6E1,1.13E2,6.65E1,2.9E1,7.2E1,-2.6599553E-1,3.711491E-2,2.0590715E-1,-1.8661012E-1,5E1,1E0,8.4E1,9.4E1,1.7403507E-1,4.38832E-1,-4.4393323E-2,2.34E1,6.15E1,7.9E1,2.81E1,3.6E1,3.6E1,1E0,9.65E1,3.3934396E-3,2.7E1,2.21E1,1.4E2,1.255E2,-3.4152043E-1,2.5356376E-1,-1.7592773E-1,-2.2491862E-1,-5.2669395E-2,-1.4263307E-2,-2.092083E-1,1.2570076E-1,-3.1342413E-2,-2.2957785E-1,-2.6487354E-2,-1.417493E-1,5.115911E-3,1.5861002E-1,-9.80236E-2,-1.4994389E-1,2.3111087E-1],"split_indices":[4,1,4,1,2,3,1,1,0,0,0,0,1,0,1,2,0,0,0,4,3,1,4,1,1,7,2,0,1,4,2,2,0,0,0,0,0,0,0,0,0,0,0,0,0,0,0,0,0],"split_type":[0,0,0,0,0,0,0,0,0,0,0,0,0,0,0,0,0,0,0,0,0,0,0,0,0,0,0,0,0,0,0,0,0,0,0,0,0,0,0,0,0,0,0,0,0,0,0,0,0],"sum_hessian":[4.53208E2,2.6091747E1,4.2711627E2,2.3539272E1,2.5524757E0,5.6932054E0,4.2142307E2,2.137084E1,2.1684313E0,1.1932352E0,1.3592404E0,1.3548931E0,4.3383126E0,3.1458017E1,3.8996506E2,1.9798426E1,1.5724143E0,2.4650497E0,1.8732626E0,2.4262674E1,7.1953435E0,3.8494583E2,5.019229E0,2.863716E0,1.693471E1,2.9232867E0,2.1339388E1,1.3883594E0,5.806984E0,3.7402585E2,1.0919967E1,3.8913507E0,1.1278784E0,1.6043228E0,1.2593931E0,5.857151E0,1.10775585E1,1.0659972E0,1.8572896E0,4.4709973E0,1.6868391E1,4.671748E0,1.1352363E0,3.6782937E0,3.7034756E2,9.087836E0,1.8321304E0,2.3949242E0,1.4964266E0],"tree_param":{"num_deleted":"0","num_feature":"8","num_nodes":"49","size_leaf_vector":"1"}},{"base_weights":[-6.4405594E-3,-2.0239589E-1,-2.330449E-3,-5.4617543E-3,2.0076597E-1,-2.476499E-2,7.75143E-2,-8.871518E-3,-3.657335E-1,3.5052404E-2,7.377005E-1,-1.2307733E-3,-4.3563282E-1,2.2188185E-1,-5.660611E-1,3.940101E-1,-4.5947675E-2,9.9796485E-3,2.805806E-1,-4.845595E-3,1.3634677E-1,7.162349E-2,-2.575293E-1,-2.420579E-1,-1.2161083E-2,2.14097E-1,-1.8169501E-1,-8.903785E-2,8.976172E-3],"categories":[],"categories_nodes":[],"categories_segments":[],"categories_sizes":[],"default_left":[0,0,0,0,0,0,0,0,0,0,0,0,0,0,0,0,0,0,0,0,0,0,0,0,0,0,0,0,0],"id":16,"left_children":[1,-1,3,5,-1,7,9,11,13,15,17,19,21,-1,23,25,27,-1,-1,-1,-1,-1,-1,-1,-1,-1,-1,-1,-1],"loss_changes":[1.2418586E0,0E0,9.519904E-1,7.224946E-1,0E0,1.978717E0,2.3610802E0,1.1422602E0,4.0199165E0,2.3747528E0,6.780796E-1,2.3553858E0,1.9617711E0,0E0,1.7812924E0,5.2338915E0,1.2844558E0,0E0,0E0,0E0,0E0,0E0,0E0,0E0,0E0,0E0,0E0,0E0,0E0],"parents":[2147483647,0,0,2,2,3,3,5,5,6,6,7,7,8,8,9,9,10,10,11,11,12,12,14,14,15,15,16,16],"right_children":[2,-1,4,6,-1,8,10,12,14,16,18,20,22,-1,24,26,28,-1,-1,-1,-1,-1,-1,-1,-1,-1,-1,-1,-1],"split_conditions":[4.2E1,-2.0239589E-1,1.72E2,3.14E1,2.0076597E-1,3.09E1,1.405E2,1.575E2,9.65E1,3.23E1,4.9E1,9.3E1,1E0,2.2188185E-1,8.2E1,1E0,3.33E1,9.9796485E-3,2.805806E-1,-4.845595E-3,1.3634677E-1,7.162349E-2,-2.575293E-1,-2.420579E-1,-1.2161083E-2,2.14097E-1,-1.8169501E-1,-8.903785E-2,8.976172E-3],"split_indices":[3,0,2,4,0,4,2,2,2,4,1,3,0,0,3,0,4,0,0,0,0,0,0,0,0,0,0,0,0],"split_type":[0,0,0,0,0,0,0,0,0,0,0,0,0,0,0,0,0,0,0,0,0,0,0,0,0,0,0,0,0],"sum_hessian":[4.5174503E2,1.7643008E0,4.499807E2,4.4887955E2,1.1011689E0,3.6473135E2,8.4148186E1,3.4946774E2,1.5263624E1,8.005247E1,4.095724E0,3.4430615E2,5.161582E0,1.9288577E0,1.3334766E1,1.4026905E1,6.602556E1,1.1530094E0,2.9427145E0,3.3432425E2,9.981907E0,2.156774E0,3.0048082E0,8.777511E0,4.5572557E0,1.0845198E1,3.1817076E0,1.4656022E1,5.1369537E1],"tree_param":{"num_deleted":"0","num_feature":"8","num_nodes":"29","size_leaf_vector":"1"}},{"base_weights":[-4.721685E-3,-1.8791866E-1,-1.272686E-3,-5.037285E-3,4.476935E-1,-6.1797E-4,-4.7539973E-1,2.2328928E-1,-3.9614514E-2,-7.2587347E-3,3.410258E-1,9.092493E-3,-2.4596216E-1,-9.3570736E-5,-3.7074864E-1,2.5805888E-1,1.1286277E-1,-2.5786448E-3,1.0232542E-1,1.66806E-1,-7.750772E-2],"categories":[],"categories_nodes":[],"categories_segments":[],"categories_sizes":[],"default_left":[0,0,0,0,0,0,0,0,0,0,0,0,0,0,0,0,0,0,0,0,0],"id":17,"left_children":[1,-1,3,5,7,9,11,-1,-1,13,15,-1,-1,17,-1,-1,19,-1,-1,-1,-1],"loss_changes":[9.640171E-1,0E0,7.602898E-1,9.262852E-1,7.4147564E-1,1.0066487E0,7.474123E-1,0E0,0E0,3.830431E0,9.050536E-1,0E0,0E0,1.2607272E0,0E0,0E0,1.2998565E0,0E0,0E0,0E0,0E0],"parents":[2147483647,0,0,2,2,3,3,4,4,5,5,6,6,9,9,10,10,13,13,16,16],"right_children":[2,-1,4,6,8,10,12,-1,-1,14,16,-1,-1,18,-1,-1,20,-1,-1,-1,-1],"split_conditions":[7.9E1,-1.8791866E-1,1.61E2,1.6E2,9.9E1,1.48E2,1E0,2.2328928E-1,-3.9614514E-2,1.47E2,7.55E1,9.092493E-3,-2.4596216E-1,1.41E2,-3.7074864E-1,2.5805888E-1,2.69E1,-2.5786448E-3,1.0232542E-1,1.66806E-1,-7.750772E-2],"split_indices":[2,0,2,2,3,2,0,0,0,2,3,0,0,2,0,0,4,0,0,0,0],"split_type":[0,0,0,0,0,0,0,0,0,0,0,0,0,0,0,0,0,0,0,0,0],"sum_hessian":[4.4897467E2,1.4806159E0,4.4749408E2,4.4475357E2,2.7404962E0,4.4160574E2,3.1478162E0,1.6251855E0,1.1153107E0,4.3414572E2,7.460035E0,1.6449497E0,1.5028665E0,4.3262268E2,1.52303E0,1.4318522E0,6.028183E0,4.2305527E2,9.567419E0,2.520933E0,3.5072498E0],"tree_param":{"num_deleted":"0","num_feature":"8","num_nodes":"21","size_leaf_vector":"1"}},{"base_weights":[-3.5656292E-3,-1.7972504E-1,-4.308914E-4,-1.6286771E-1,9.124502E-3,-2.4957384E-1,4.4202226E-1,7.300222E-2,-3.3042762E-2,-5.1482163E-2,-5.018463E-1,2.6556453E-2,1.9734915E-1,-6.970928E-2,1.4471112E-1,-3.7376535E-1,1.5346404E-3,1.809381E-1,-2.1125902E-1,-5.952139E-1,3.9085053E-2,3.1053963E-1,-1.7294067E-1,5.275448E-1,8.184922E-2,-5.804686E-1,7.5180125E-1,-1.1312896E-2,7.076771E-1,-2.089407E-1,5.9543338E-2,-9.662012E-2,-2.8442922E-1,2.5969198E-1,-7.4168235E-2,-8.122551E-2,1.3987322E-1,-1.3903405E-1,2.628841E-1,5.313172E-2,-1.1892229E-2,-2.379693E-1,1.2255561E-1,-4.9816076E-2,3.553957E-1,2.0627423E-1,-7.0109433E-3,4.9411964E-2,2.5022784E-1],"categories":[],"categories_nodes":[],"categories_segments":[],"categories_sizes":[],"default_left":[0,0,0,0,0,0,0,0,0,0,0,0,0,0,0,0,0,0,0,0,0,0,0,0,0,0,0,0,0,0,0,0,0,0,0,0,0,0,0,0,0,0,0,0,0,0,0,0,0],"id":18,"left_children":[1,-1,3,5,7,9,11,13,15,17,19,-1,-1,21,23,25,27,-1,29,31,-1,33,35,37,39,41,43,45,47,-1,-1,-1,-1,-1,-1,-1,-1,-1,-1,-1,-1,-1,-1,-1,-1,-1,-1,-1,-1],"loss_changes":[8.371028E-1,0E0,6.9561887E-1,1.416193E0,1.1426164E0,1.0943707E0,2.0743716E-1,1.7358398E0,3.012756E0,1.557264E0,6.5272474E-1,0E0,0E0,2.2939699E0,2.6657214E0,5.9178505E0,2.1228676E0,0E0,2.4701114E0,5.304189E-1,0E0,4.097675E0,2.972621E0,5.829337E0,1.1396468E0,4.6311283E0,1.8220782E0,1.9536031E0,1.496191E-1,0E0,0E0,0E0,0E0,0E0,0E0,0E0,0E0,0E0,0E0,0E0,0E0,0E0,0E0,0E0,0E0,0E0,0E0,0E0,0E0],"parents":[2147483647,0,0,2,2,3,3,4,4,5,5,6,6,7,7,8,8,9,9,10,10,13,13,14,14,15,15,16,16,18,18,19,19,21,21,22,22,23,23,24,24,25,25,26,26,27,27,28,28],"right_children":[2,-1,4,6,8,10,12,14,16,18,20,-1,-1,22,24,26,28,-1,30,32,-1,34,36,38,40,42,44,46,48,-1,-1,-1,-1,-1,-1,-1,-1,-1,-1,-1,-1,-1,-1,-1,-1,-1,-1,-1,-1],"split_conditions":[4.2E1,-1.7972504E-1,2.16E1,8.2E1,2.67E1,2.06E1,2.05E1,4.7E1,2.73E1,9.4E1,1E0,2.6556453E-2,1.9734915E-1,2.29E1,5.1E1,1E0,1.52E2,1.809381E-1,1.18E2,6.1E1,3.9085053E-2,1E0,1.305E2,2.4E1,7.55E1,8.65E1,2.69E1,8.6E1,2.88E1,-2.089407E-1,5.9543338E-2,-9.662012E-2,-2.8442922E-1,2.5969198E-1,-7.4168235E-2,-8.122551E-2,1.3987322E-1,-1.3903405E-1,2.628841E-1,5.313172E-2,-1.1892229E-2,-2.379693E-1,1.2255561E-1,-4.9816076E-2,3.553957E-1,2.0627423E-1,-7.0109433E-3,4.9411964E-2,2.5022784E-1],"split_indices":[3,0,4,1,4,4,4,1,4,2,5,0,0,4,1,6,2,0,2,1,0,7,2,4,3,3,4,2,4,0,0,0,0,0,0,0,0,0,0,0,0,0,0,0,0,0,0,0,0],"split_type":[0,0,0,0,0,0,0,0,0,0,0,0,0,0,0,0,0,0,0,0,0,0,0,0,0,0,0,0,0,0,0,0,0,0,0,0,0,0,0,0,0,0,0,0,0,0,0,0,0],"sum_hessian":[4.4755603E2,1.3480644E0,4.4620798E2,2.3898642E1,4.2230933E2,2.1416206E1,2.482435E0,1.6763448E2,2.5467485E2,1.26708E1,8.745406E0,1.4755776E0,1.0068575E0,5.6071552E1,1.1156292E2,2.2560106E1,2.3211475E2,1.9415249E0,1.0729276E1,7.6708035E0,1.0746026E0,1.1543462E1,4.452809E1,1.4692483E1,9.687044E1,1.9469028E1,3.0910776E0,2.2893352E2,3.1812308E0,4.5918345E0,6.137441E0,5.4020553E0,2.2687483E0,5.5089135E0,6.034548E0,3.911842E1,5.409672E0,3.7388806E0,1.0953603E1,5.4040886E1,4.282955E1,1.618505E1,3.2839785E0,1.1881E0,1.9029776E0,2.9322824E0,2.2600124E2,1.0356942E0,2.1455364E0],"tree_param":{"num_deleted":"0","num_feature":"8","num_nodes":"49","size_leaf_vector":"1"}},{"base_weights":[-3.2300518E-3,-1.9143414E-1,5.900214E-3,-3.8601673E-1,3.0849653E-1,8.088442E-2,-1.5591244E-2,-6.598724E-1,-6.520909E-2,-1.5744623E-2,3.7279105E-1,-1.5929057E-1,2.7663669E-2,-3.318916E-1,-7.6183134E-1,-4.3409103E-1,3.7880275E-1,-2.3342997E-1,1.1770768E-1,-1.662157E-1,9.2372626E-1,-6.27604E-2,-6.479086E-1,3.4966636E-1,1.793908E-2,-2.0646441E-1,9.144263E-2,-5.0972015E-2,-2.6302987E-1,-9.913867E-3,-6.3836247E-1,6.605064E-1,-7.707636E-2,8.729352E-2,-7.4950093E-1,-5.175081E-1,1.8649854E-1,2.300838E-1,-4.216255E-1,1.4345506E0,-5.062324E-3,2.074844E-1,-1.9956058E-1,-2.848699E-1,-9.524495E-2,7.793847E-2,-8.229887E-2,-6.2358867E-2,-2.2123402E-1,-2.1201298E-2,3.4976947E-1,-9.970314E-2,1.4265709E-1,-2.6584318E-1,-6.2888734E-2,-2.306687E-1,1.3344656E-2,1.5139218E-1,1.1371038E-2,-2.8292218E-1,9.258172E-2,1.0019104E-1,5.170917E-1,-2.3750794E-1,3.0708334E-1,-9.3411356E-2,1.3348165E-1,-7.730758E-2,2.996637E-1,-1.372382E-1,1.953809E-1,2.8916758E-1,1.7842265E-2,-4.033832E-2,1.1632279E-1],"categories":[],"categories_nodes":[],"categories_segments":[],"categories_sizes":[],"default_left":[0,0,0,0,0,0,0,0,0,0,0,0,0,0,0,0,0,0,0,0,0,0,0,0,0,0,0,0,0,0,0,0,0,0,0,0,0,0,0,0,0,0,0,0,0,0,0,0,0,0,0,0,0,0,0,0,0,0,0,0,0,0,0,0,0,0,0,0,0,0,0,0,0,0,0],"id":19,"left_children":[1,3,5,7,-1,9,11,13,15,17,19,21,23,25,27,29,31,33,35,37,39,41,43,-1,45,-1,-1,-1,-1,-1,47,49,-1,51,53,55,57,-1,59,61,63,65,67,-1,69,71,73,-1,-1,-1,-1,-1,-1,-1,-1,-1,-1,-1,-1,-1,-1,-1,-1,-1,-1,-1,-1,-1,-1,-1,-1,-1,-1,-1,-1],"loss_changes":[7.6712614E-1,5.299263E0,6.879598E-1,1.5858321E0,0E0,2.6879332E0,2.0682213E0,7.796383E-2,1.7446443E0,2.130673E0,7.1880264E0,3.5896912E0,2.8125656E0,1.1440091E0,3.1192255E-1,4.487915E-1,1.0493878E0,4.675124E0,2.0867934E0,3.3791943E0,5.637596E0,2.458437E0,2.008522E0,0E0,1.5394931E0,0E0,0E0,0E0,0E0,0E0,6.4827204E-3,1.4436936E0,0E0,3.1022065E0,6.093836E-1,7.003932E-1,1.9584398E0,0E0,4.3697352E0,1.8614302E0,5.024102E0,2.906075E0,3.3168998E0,0E0,1.8005413E0,2.5596094E0,2.4043038E0,0E0,0E0,0E0,0E0,0E0,0E0,0E0,0E0,0E0,0E0,0E0,0E0,0E0,0E0,0E0,0E0,0E0,0E0,0E0,0E0,0E0,0E0,0E0,0E0,0E0,0E0,0E0,0E0],"parents":[2147483647,0,0,1,1,2,2,3,3,5,5,6,6,7,7,8,8,9,9,10,10,11,11,12,12,13,13,14,14,15,15,16,16,17,17,18,18,19,19,20,20,21,21,22,22,24,24,30,30,31,31,33,33,34,34,35,35,36,36,38,38,39,39,40,40,41,41,42,42,44,44,45,45,46,46],"right_children":[2,4,6,8,-1,10,12,14,16,18,20,22,24,26,28,30,32,34,36,38,40,42,44,-1,46,-1,-1,-1,-1,-1,48,50,-1,52,54,56,58,-1,60,62,64,66,68,-1,70,72,74,-1,-1,-1,-1,-1,-1,-1,-1,-1,-1,-1,-1,-1,-1,-1,-1,-1,-1,-1,-1,-1,-1,-1,-1,-1,-1,-1,-1],"split_conditions":[5.75E1,1.195E2,6.95E1,5.1E1,3.0849653E-1,6.6E1,7.25E1,8.65E1,2.78E1,1.025E2,1E0,7.05E1,9.45E1,4.1E1,2.37E1,9.65E1,5.25E1,9.65E1,2.19E1,3.6E1,1.1E2,2.52E1,1E0,3.4966636E-1,1E0,-2.0646441E-1,9.144263E-2,-5.0972015E-2,-2.6302987E-1,-9.913867E-3,2.39E1,1E0,-7.707636E-2,2.76E1,1E0,1.185E2,4.7E1,2.300838E-1,5.8E1,4.1E1,5.7E1,4.9E1,1.355E2,-2.848699E-1,2.93E1,2.2E1,7.2E1,-6.2358867E-2,-2.2123402E-1,-2.1201298E-2,3.4976947E-1,-9.970314E-2,1.4265709E-1,-2.6584318E-1,-6.2888734E-2,-2.306687E-1,1.3344656E-2,1.5139218E-1,1.1371038E-2,-2.8292218E-1,9.258172E-2,1.0019104E-1,5.170917E-1,-2.3750794E-1,3.0708334E-1,-9.3411356E-2,1.3348165E-1,-7.730758E-2,2.996637E-1,-1.372382E-1,1.953809E-1,2.8916758E-1,1.7842265E-2,-4.033832E-2,1.1632279E-1],"split_indices":[3,2,3,1,0,3,3,2,4,2,7,3,2,1,4,2,3,2,4,1,2,4,7,0,7,0,0,0,0,0,4,7,0,4,0,2,1,0,1,1,1,1,2,0,4,1,1,0,0,0,0,0,0,0,0,0,0,0,0,0,0,0,0,0,0,0,0,0,0,0,0,0,0,0,0],"split_type":[0,0,0,0,0,0,0,0,0,0,0,0,0,0,0,0,0,0,0,0,0,0,0,0,0,0,0,0,0,0,0,0,0,0,0,0,0,0,0,0,0,0,0,0,0,0,0,0,0,0,0,0,0,0,0,0,0,0,0,0,0,0,0,0,0,0,0,0,0,0,0,0,0,0,0],"sum_hessian":[4.4477362E2,1.9654953E1,4.2511868E2,1.7540344E1,2.114609E0,9.408618E1,3.310325E2,8.8924465E0,8.647898E0,7.1397675E1,2.268851E1,7.59691E1,2.5506339E2,3.1179137E0,5.774533E0,4.7357845E0,3.9121134E0,2.6850456E1,4.4547215E1,1.1821382E1,1.086713E1,6.4379E1,1.1590109E1,1.1541815E0,2.539092E2,1.9472476E0,1.1706661E0,1.3419026E0,4.43263E0,1.9902047E0,2.74558E0,2.6838539E0,1.2282596E0,1.7071718E1,9.778739E0,3.7154822E0,4.0831734E1,2.1098945E0,9.711487E0,6.659779E0,4.2073507E0,2.146292E1,4.2916077E1,7.0331016E0,4.5570073E0,1.5897441E2,9.4934784E1,1.093294E0,1.6522858E0,1.448458E0,1.2353959E0,8.2731905E0,8.798527E0,7.2917747E0,2.4869637E0,2.3127747E0,1.4027076E0,1.2236759E1,2.8594975E1,5.495646E0,4.2158403E0,1.8337625E0,4.8260164E0,2.5147138E0,1.6926372E0,6.6408596E0,1.4822061E1,4.167936E1,1.2367157E0,3.3289666E0,1.2280406E0,2.2002182E0,1.567742E2,8.6094505E1,8.840279E0],"tree_param":{"num_deleted":"0","num_feature":"8","num_nodes":"75","size_leaf_vector":"1"}},{"base_weights":[-4.376463E-3,-1.7617866E-1,6.4395093E-3,-2.6917937E-1,1.8647055E-1,1.808901E-1,2.1993942E-3,-3.4080568E-1,1.8019712E-1,3.7996465E-1,-3.98754E-3,2.1212112E-2,-6.1338127E-1,6.2462676E-2,7.005375E-1,-2.2357073E-1,5.7188473E-3,-1.9639024E-1,3.0129048E-1,-6.6956496E-1,1.2931784E-3,4.629667E-1,-1.9294879E-1,3.2008994E-1,1.7319907E-3,-3.601356E-1,1.8085751E-1,1.4039984E-1,-9.800632E-3,-2.0233081E-1,9.159172E-4,-1.2657164E-1,-2.773912E-1,4.327359E-2,1.7940292E-1,-1.829961E-1,-9.649937E-3,-2.0900421E-1,5.5568248E-2,-6.319918E-2,6.2270737E-3],"categories":[],"categories_nodes":[],"categories_segments":[],"categories_sizes":[],"default_left":[0,0,0,0,0,0,0,0,0,0,0,0,0,0,0,0,0,0,0,0,0,0,0,0,0,0,0,0,0,0,0,0,0,0,0,0,0,0,0,0,0],"id":20,"left_children":[1,3,5,7,-1,-1,9,11,-1,13,15,17,19,21,23,25,27,29,-1,31,-1,33,-1,-1,-1,35,-1,37,39,-1,-1,-1,-1,-1,-1,-1,-1,-1,-1,-1,-1],"loss_changes":[8.218586E-1,2.110708E0,1.0520971E0,1.7097882E0,0E0,0E0,9.7039294E-1,2.2783916E0,0E0,6.3719624E-1,8.7269455E-1,2.513472E0,4.585538E-1,1.5579398E0,8.164319E-1,2.1733057E0,8.218166E-1,9.2704123E-1,0E0,3.7057924E-1,0E0,6.120032E-2,0E0,0E0,0E0,1.2505667E0,0E0,1.6533804E0,2.1704288E0,0E0,0E0,0E0,0E0,0E0,0E0,0E0,0E0,0E0,0E0,0E0,0E0],"parents":[2147483647,0,0,1,1,2,2,3,3,6,6,7,7,9,9,10,10,11,11,12,12,13,13,14,14,15,15,16,16,17,17,19,19,21,21,25,25,27,27,28,28],"right_children":[2,4,6,8,-1,-1,10,12,-1,14,16,18,20,22,24,26,28,30,-1,32,-1,34,-1,-1,-1,36,-1,38,40,-1,-1,-1,-1,-1,-1,-1,-1,-1,-1,-1,-1],"split_conditions":[9.35E1,1E0,9.45E1,7.25E1,1.8647055E-1,1.808901E-1,5.2E1,8.9E1,1.8019712E-1,6.3E1,2.14E1,6.45E1,3.4E1,5.3E1,6.9E1,8.2E1,2.34E1,2.3E1,3.0129048E-1,2.84E1,1.2931784E-3,4.6E1,-1.9294879E-1,3.2008994E-1,1.7319907E-3,7.85E1,1.8085751E-1,6E1,2.49E1,-2.0233081E-1,9.159172E-4,-1.2657164E-1,-2.773912E-1,4.327359E-2,1.7940292E-1,-1.829961E-1,-9.649937E-3,-2.0900421E-1,5.5568248E-2,-6.319918E-2,6.2270737E-3],"split_indices":[2,5,2,3,0,0,3,2,0,1,4,3,4,1,1,1,4,4,0,4,0,1,0,0,0,3,0,3,4,0,0,0,0,0,0,0,0,0,0,0,0],"split_type":[0,0,0,0,0,0,0,0,0,0,0,0,0,0,0,0,0,0,0,0,0,0,0,0,0,0,0,0,0,0,0,0,0,0,0,0,0,0,0,0,0],"sum_hessian":[4.4067505E2,2.5194462E1,4.154806E2,2.315737E1,2.0370915E0,1.9357879E0,4.135448E2,2.1957485E1,1.1998845E0,5.690283E0,4.0785452E2,9.827455E0,1.2130031E1,3.4591331E0,2.23115E0,1.633275E1,3.9152176E2,8.701622E0,1.1258327E0,1.1041724E1,1.0883069E0,2.4260368E0,1.0330963E0,1.1099968E0,1.1211531E0,1.450077E1,1.8319811E0,3.96226E1,3.5189917E2,1.8605281E0,6.841094E0,6.948865E0,4.0928593E0,1.3374949E0,1.088542E0,7.742521E0,6.7582483E0,1.274888E0,3.834771E1,4.5687622E1,3.0621155E2],"tree_param":{"num_deleted":"0","num_feature":"8","num_nodes":"41","size_leaf_vector":"1"}},{"base_weights":[-3.3713614E-3,-1.8006442E-4,-1.5752131E-1,-3.925493E-3,1.9916616E-1,1.4632116E-3,-2.4220566E-1,-1.906608E-2,1.1252437E-1,3.6377275E-1,-5.537648E-1,-1.3416928E-2,-6.001686E-1,-4.4239637E-1,1.5967354E-1,-7.864771E-2,2.5033605E-1,4.775597E-3,-7.5106347E-1,-2.03705E-3,-9.664791E-2,-2.3611523E-1,-2.9126698E-2,6.378286E-2,-2.0339578E-1,3.005436E-2,1.5277496E-1,-5.511935E-3,-2.884346E-1],"categories":[],"categories_nodes":[],"categories_segments":[],"categories_sizes":[],"default_left":[0,0,0,0,0,0,0,0,0,0,0,0,0,0,0,0,0,0,0,0,0,0,0,0,0,0,0,0,0],"id":21,"left_children":[1,3,-1,5,-1,7,9,11,13,15,17,19,21,23,25,-1,-1,-1,27,-1,-1,-1,-1,-1,-1,-1,-1,-1,-1],"loss_changes":[7.3206496E-1,1.092228E0,0E0,5.609915E-1,0E0,9.7790647E-1,2.0255985E0,1.180472E0,1.8213053E0,1.3631402E0,7.737422E-1,7.335209E-1,2.4915814E-1,9.9365807E-1,1.2468475E0,0E0,0E0,0E0,7.615299E-1,0E0,0E0,0E0,0E0,0E0,0E0,0E0,0E0,0E0,0E0],"parents":[2147483647,0,0,1,1,3,3,5,5,6,6,7,7,8,8,9,9,10,10,11,11,12,12,13,13,14,14,18,18],"right_children":[2,4,-1,6,-1,8,10,12,14,16,18,20,22,24,26,-1,-1,-1,28,-1,-1,-1,-1,-1,-1,-1,-1,-1,-1],"split_conditions":[9E1,8.8E1,-1.5752131E-1,9.8E1,1.9916616E-1,1.315E2,1.355E2,8.4E1,2.21E1,5.9E1,1E0,1.31E2,7.55E1,2.01E1,1E0,-7.864771E-2,2.5033605E-1,4.775597E-3,2.6E1,-2.03705E-3,-9.664791E-2,-2.3611523E-1,-2.9126698E-2,6.378286E-2,-2.0339578E-1,3.005436E-2,1.5277496E-1,-5.511935E-3,-2.884346E-1],"split_indices":[1,1,0,3,0,2,2,1,4,1,0,2,3,4,5,0,0,0,4,0,0,0,0,0,0,0,0,0,0],"split_type":[0,0,0,0,0,0,0,0,0,0,0,0,0,0,0,0,0,0,0,0,0,0,0,0,0,0,0,0,0],"sum_hessian":[4.3876227E2,4.370889E2,1.6733781E0,4.3562598E2,1.4629004E0,4.2696405E2,8.66193E0,3.6105292E2,6.5911125E1,2.8843396E0,5.7775908E0,3.5859E2,2.462922E0,4.505138E0,6.1405987E1,1.4281478E0,1.4561918E0,1.7227141E0,4.0548763E0,3.5205557E2,6.5344224E0,1.3842429E0,1.0786791E0,1.2175487E0,3.2875888E0,5.357496E1,7.8310285E0,1.1471447E0,2.9077318E0],"tree_param":{"num_deleted":"0","num_feature":"8","num_nodes":"29","size_leaf_vector":"1"}},{"base_weights":[-3.3056655E-3,2.6714023E-2,-4.9018245E-2,-6.8126745E-3,3.215765E-1,-2.9106194E-1,9.46879E-3,-3.828854E-2,2.256917E-1,2.074207E-2,7.672714E-1,1.9466499E-2,-7.741183E-1,-1.5973061E-2,4.7222903E-1,2.3820674E-2,-2.7414706E-1,-5.494879E-2,5.583139E-1,2.2056815E-1,-2.719333E-1,9.7455513E-1,-3.6521506E-2,1.5576169E-1,-6.388349E-1,-3.0943787E-1,-2.4779226E-1,1.827517E-1,-8.3501875E-2,5.1012255E-2,2.642203E-1,-3.6428192E-1,5.6160316E-2,8.963009E-2,-3.9312118E-1,6.588062E-1,-2.8341642E-1,-4.4518182E-1,9.2490155E-1,-3.266168E-1,5.9297425E-1,3.8245842E-1,-1.5932595E-2,-8.3108716E-2,7.7130306E-1,-2.461067E-1,-7.205641E-2,1.3981842E-1,-7.209952E-1,7.7315114E-2,3.5231885E-1,-5.9098005E-1,-2.097749E-2,1.7633358E-1,-2.8085107E-1,6.553568E-2,-1.5046602E-1,5.763974E-2,-3.2072829E-3,-5.593436E-2,2.0694898E-1,-1.4825243E-1,6.2383812E-2,-8.161262E-2,3.5641742E-1,1.4179444E-1,-1.5478516E-1,1.6720276E-2,-2.1998851E-1,4.2073494E-1,1.0185498E-2,1.5060806E-1,-1.7551833E-1,-1.9131002E-1,2.6433784E-1,-1.2376509E-1,6.830991E-2,-2.0258902E-2,3.1733564E-1,9.593764E-4,-2.9994035E-1,1.9828267E-1,-3.493973E-2,-2.3769991E-1,1.9549108E-1,-2.0280617E-1,5.4901354E-3,-2.7984488E-1,1.4656621E-1],"categories":[],"categories_nodes":[],"categories_segments":[],"categories_sizes":[],"default_left":[0,0,0,0,0,0,0,0,0,0,0,0,0,0,0,0,0,0,0,0,0,0,0,0,0,0,0,0,0,0,0,0,0,0,0,0,0,0,0,0,0,0,0,0,0,0,0,0,0,0,0,0,0,0,0,0,0,0,0,0,0,0,0,0,0,0,0,0,0,0,0,0,0,0,0,0,0,0,0,0,0,0,0,0,0,0,0,0,0],"id":22,"left_children":[1,3,5,7,9,11,13,15,17,19,21,23,25,27,29,31,33,35,37,39,-1,41,-1,43,45,-1,47,49,51,53,-1,55,57,59,61,63,65,67,69,71,73,-1,-1,75,77,-1,-1,-1,79,81,-1,83,85,-1,87,-1,-1,-1,-1,-1,-1,-1,-1,-1,-1,-1,-1,-1,-1,-1,-1,-1,-1,-1,-1,-1,-1,-1,-1,-1,-1,-1,-1,-1,-1,-1,-1,-1,-1],"loss_changes":[6.024042E-1,2.6223512E0,2.4657362E0,1.7574426E0,3.6150134E0,5.0987864E0,1.6686921E0,3.102235E0,2.7039595E0,3.3858087E0,2.124486E0,2.0379672E0,1.5439358E0,1.8229799E0,1.2258925E0,2.1315067E0,1.9451509E0,2.8680959E0,5.2657447E0,3.2402658E0,0E0,2.8260622E0,0E0,2.814093E0,8.530915E-2,0E0,2.2543972E0,3.5141525E0,3.1995482E0,1.001888E0,0E0,1.1551453E0,1.4212197E0,2.0656707E0,2.1338587E0,2.4356396E0,2.556697E0,6.4782053E-1,4.2025557E0,1.7284521E0,3.8426123E0,0E0,0E0,1.5660332E0,1.3513575E0,0E0,0E0,0E0,7.720274E-1,3.7226906E0,0E0,3.2853413E0,2.3578322E0,0E0,2.251338E0,0E0,0E0,0E0,0E0,0E0,0E0,0E0,0E0,0E0,0E0,0E0,0E0,0E0,0E0,0E0,0E0,0E0,0E0,0E0,0E0,0E0,0E0,0E0,0E0,0E0,0E0,0E0,0E0,0E0,0E0,0E0,0E0,0E0,0E0],"parents":[2147483647,0,0,1,1,2,2,3,3,4,4,5,5,6,6,7,7,8,8,9,9,10,10,11,11,12,12,13,13,14,14,15,15,16,16,17,17,18,18,19,19,21,21,23,23,24,24,26,26,27,27,28,28,29,29,31,31,32,32,33,33,34,34,35,35,36,36,37,37,38,38,39,39,40,40,43,43,44,44,48,48,49,49,51,51,52,52,54,54],"right_children":[2,4,6,8,10,12,14,16,18,20,22,24,26,28,30,32,34,36,38,40,-1,42,-1,44,46,-1,48,50,52,54,-1,56,58,60,62,64,66,68,70,72,74,-1,-1,76,78,-1,-1,-1,80,82,-1,84,86,-1,88,-1,-1,-1,-1,-1,-1,-1,-1,-1,-1,-1,-1,-1,-1,-1,-1,-1,-1,-1,-1,-1,-1,-1,-1,-1,-1,-1,-1,-1,-1,-1,-1,-1,-1],"split_conditions":[2.85E1,2.8E1,2.94E1,1E0,5.9E1,1E0,1.405E2,2.67E1,2.56E1,8.8E1,1E0,8.35E1,1.215E2,1.1E2,5.3E1,9.6E1,4.3E1,2.24E1,1E0,1.115E2,-2.719333E-1,1.255E2,-3.6521506E-2,8E1,8.75E1,-3.0943787E-1,5.7E1,1.075E2,1.11E2,3.09E1,2.642203E-1,2.06E1,1.12E2,3.9E1,8.65E1,1E0,1.06E2,2.67E1,1.205E2,2.7E1,3.2E1,3.8245842E-1,-1.5932595E-2,5.8E1,2.88E1,-2.461067E-1,-7.205641E-2,1.3981842E-1,2.88E1,3.7E1,3.5231885E-1,3.76E1,3.1E1,1.7633358E-1,3.16E1,6.553568E-2,-1.5046602E-1,5.763974E-2,-3.2072829E-3,-5.593436E-2,2.0694898E-1,-1.4825243E-1,6.2383812E-2,-8.161262E-2,3.5641742E-1,1.4179444E-1,-1.5478516E-1,1.6720276E-2,-2.1998851E-1,4.2073494E-1,1.0185498E-2,1.5060806E-1,-1.7551833E-1,-1.9131002E-1,2.6433784E-1,-1.2376509E-1,6.830991E-2,-2.0258902E-2,3.1733564E-1,9.593764E-4,-2.9994035E-1,1.9828267E-1,-3.493973E-2,-2.3769991E-1,1.9549108E-1,-2.0280617E-1,5.4901354E-3,-2.7984488E-1,1.4656621E-1],"split_indices":[4,4,4,6,1,7,2,4,4,3,5,3,2,2,1,2,1,4,0,2,0,2,0,3,3,0,1,2,2,4,0,4,2,1,3,7,2,4,2,1,1,0,0,1,4,0,0,0,4,1,0,4,1,0,4,0,0,0,0,0,0,0,0,0,0,0,0,0,0,0,0,0,0,0,0,0,0,0,0,0,0,0,0,0,0,0,0,0,0],"split_type":[0,0,0,0,0,0,0,0,0,0,0,0,0,0,0,0,0,0,0,0,0,0,0,0,0,0,0,0,0,0,0,0,0,0,0,0,0,0,0,0,0,0,0,0,0,0,0,0,0,0,0,0,0,0,0,0,0,0,0,0,0,0,0,0,0,0,0,0,0,0,0,0,0,0,0,0,0,0,0,0,0,0,0,0,0,0,0,0,0],"sum_hessian":[4.3702707E2,2.6404376E2,1.729833E2,2.3796353E2,2.6080233E1,3.2890835E1,1.4009247E2,2.1032552E2,2.7638025E1,1.6195297E1,9.884935E0,2.0604876E1,1.2285957E1,1.3370695E2,6.385521E0,1.671963E2,4.3129215E1,1.5443127E1,1.2194898E1,1.3950756E1,2.24454E0,7.937892E0,1.947044E0,1.7703018E1,2.901857E0,7.6069083E0,4.6790495E0,3.3478794E1,1.0022816E2,3.6976674E0,2.6878536E0,1.2070925E1,1.5512537E2,1.0689987E1,3.2439228E1,3.2878811E0,1.2155246E1,3.2055748E0,8.989323E0,5.6994205E0,8.251336E0,5.956676E0,1.9812161E0,1.337689E1,4.326128E0,1.2670604E0,1.6347965E0,1.8712516E0,2.8077977E0,3.1235632E1,2.243162E0,1.0067057E1,9.0161095E1,1.1180887E0,2.5795786E0,2.1886125E0,9.882312E0,5.0512146E1,1.0461323E2,7.7941957E0,2.8957915E0,2.7922619E1,4.51661E0,1.3679383E0,1.9199429E0,2.6162233E0,9.539022E0,1.4650246E0,1.7405502E0,5.4786606E0,3.5106626E0,1.1309111E0,4.568509E0,1.3353006E0,6.9160357E0,6.3348827E0,7.042008E0,1.2959142E0,3.0302136E0,1.055274E0,1.7525238E0,7.1850395E0,2.4050592E1,8.975103E0,1.091953E0,4.1833673E0,8.597773E1,1.2813902E0,1.2981886E0],"tree_param":{"num_deleted":"0","num_feature":"8","num_nodes":"89","size_leaf_vector":"1"}},{"base_weights":[-4.9451217E-3,-2.1566157E-3,-1.322831E-1,-5.2446094E-3,1.5729311E-1,3.0987815E-3,-1.657662E-1,-1.5094619E-2,1.1520754E-1,-7.0281094E-1,-2.4761863E-3,-1.0328231E-2,-5.174871E-1,5.168155E-1,5.457924E-2,-8.782794E-1,-1.4252524E-2,2.0428818E-1,-3.2838237E-1,-5.1194006E-3,5.8313116E-2,-2.1381055E-1,-1.8269094E-2,-1.04155526E-1,2.158329E-1,1.253077E-1,-1.2587883E-3,-6.361108E-2,-3.1182304E-1,1.7119958E-1,-1.4540699E-2,4.2178713E-2,-1.5859747E-1],"categories":[],"categories_nodes":[],"categories_segments":[],"categories_sizes":[],"default_left":[0,0,0,0,0,0,